198 100
the 0.023697738 0.0042790994 -0.0013557896 0.017836202 0.0015067942 -0.0490953 0.0440779 0.0018179417 -0.019354392 -0.004470598 -0.034886837 -0.012925722 -0.045104157 -0.01695143 0.0074172616 -0.03699199 0.023744669 0.047190417 -0.010074008 0.047026787 -0.012805771 0.04207618 -0.005851984 0.03192996 0.03436159 -0.0056022294 0.024883833 -0.0032383204 -0.035659563 -0.0338264 -0.014626898 -0.031193687 -0.029754186 0.021908727 0.046923373 -0.043625653 -0.0039211884 0.03661492 -0.020897318 -0.0071982965 0.0061267614 -0.026533974 0.021855418 0.024223033 -0.049484458 0.01826315 -0.017450906 -0.02161634 -0.045232248 0.012746397 0.022299338 -0.044308808 0.0071452036 0.008025516 0.048446443 0.039769005 0.045744706 0.031677175 -0.03971697 0.04588454 -0.009510852 0.0070043094 0.03315382 0.0271861 -0.0038033724 0.022217821 -0.047670066 -0.03323283 0.029322911 0.033179726 0.036817167 -0.034236386 -0.028033352 -0.026197052 0.031753335 -0.013418306 0.01878966 -0.03486979 -0.024801314 -0.036557008 0.044775475 0.037287127 0.0164775 0.0011059269 0.027272414 0.027420852 0.03516343 -0.007520616 -0.008342851 -0.034804642 -0.038128316 0.01064086 -0.033832956 0.028588045 -0.023825705 0.03412625 -0.025881028 0.03181758 -0.021923387 0.042412248
of -0.021554505 0.008062743 -0.041088186 -0.04914589 -0.030065406 0.04701033 0.04070193 -0.033940695 -0.033661474 -0.021710707 -0.013114452 -0.00031076744 -0.04822588 -0.02707541 -0.044624176 0.03215171 -0.04625044 -0.049330153 0.01479188 0.0012619719 -0.0077646486 0.034854 0.02335367 -0.031657804 -0.023582388 -0.044784475 -0.018527914 -0.029909646 -0.029567385 0.0026537068 0.0061377995 0.032593753 0.02894384 0.00028099865 -0.0016779192 -0.03783766 -0.008882832 -0.013058804 -0.023075497 -0.008775283 -0.0130915865 0.014774505 0.033458326 0.015093911 0.01523694 -0.044407453 -0.03972585 -0.017121803 -0.0037913695 0.030988228 0.020308021 -0.0485049 -0.040836085 0.028929088 -0.014209129 0.032868896 0.037471104 -0.029305888 0.007622957 0.001235377 -0.0007792115 0.039783727 0.00981871 -0.022386301 0.019741092 0.014038537 -0.022415865 0.002842605 -0.020963943 -0.02141397 -0.04724741 0.018879775 0.04621445 0.038435373 0.03244854 -0.011824239 0.041622344 0.035818662 0.037276436 -0.033587277 0.043214332 -0.009124242 -0.04940567 -0.015153527 -0.039955378 -0.017575242 -0.020765102 -0.0044190995 0.020992365 -0.029907966 -0.0012511723 0.013735894 0.009250067 -0.04130132 -0.035736788 0.032906104 0.028605375 0.0069744103 0.020604637 0.03236909
influenza -0.018203069 0.03562543 -0.03073579 -0.042632964 -0.03678422 0.038091514 -0.0077684037 -0.031213617 0.01886395 0.016766619 -0.008558214 -0.005526293 -0.021325791 -0.0071320906 0.029159274 0.041102145 0.048896316 0.042016294 -0.034369133 0.00044269487 -0.04693929 0.033456933 0.044378567 -0.030712295 0.0030304305 -0.048409473 -0.033729233 -0.04172504 -0.047986187 0.035287645 0.04635484 -0.0082608685 -0.024486495 0.029808711 -0.027699579 -0.04771885 0.0034781098 -0.007537149 0.02197386 -0.023203839 0.027794305 -0.012024485 -0.009973597 -0.032039836 0.04702511 0.03597529 -0.0015649423 0.026624177 -0.02574159 -0.037914 -0.045598555 -0.017545365 0.00708263 -0.032469608 -0.007222235 0.036680583 0.022638287 -0.007027827 0.038488794 0.035366606 0.0015023239 -0.009824406 0.040112067 -0.0034872666 -0.0040949695 0.037319455 0.0036987886 -0.007150065 -0.004252374 0.04033405 -0.0210809 0.032744084 0.04883765 -0.004698001 0.042514328 -0.007249832 0.031331327 0.046503272 0.03604872 -0.012031697 0.040166322 -0.035120606 0.048585657 -0.011665702 -0.04980824 0.040184308 0.04008833 0.03579103 0.026374225 -0.0022378787 -0.027711142 -0.033522107 0.046116743 -0.012416054 0.043791298 0.047535542 0.020490501 -0.028159535 0.014592957 0.0321952
covid 0.04880515 0.0124338865 0.023757089 0.0013558492 0.037606012 -0.02112571 0.023077074 0.0346159 -0.019520342 0.043352637 -0.04722804 0.0034442917 0.007500291 0.043937396 -0.03124894 -0.035264242 0.037779305 -0.00888928 -0.01175537 0.043796327 0.036474172 0.030104998 -0.049473226 -0.016008329 -0.04123657 -0.0076586716 -0.004724227 0.01261181 0.012724254 -0.015447639 -0.03936237 -0.046253063 -0.006908715 -0.026844824 -0.030365933 -0.0085606575 -0.027031029 -0.049893893 0.020507637 0.022704806 -0.003431905 -0.041851245 0.016913798 -0.045504488 -0.022472514 0.030808661 -0.012067247 -0.022049535 0.04409424 -0.025815357 0.019932378 -0.048704814 0.03563798 0.02219316 -0.021145333 -0.016909681 -0.02983371 -0.030823862 -0.03154917 0.010907732 -0.018977607 -0.032101393 -0.01763599 -0.018432904 0.014347743 -0.03215444 -0.047424328 -0.03546946 -0.033176184 -0.049836483 -0.024102522 0.044048358 -0.023659552 -0.007362485 0.045486096 -0.03635019 0.00042233616 0.030379403 0.016104225 0.034995627 0.0033683404 0.0011303313 0.03183632 0.047589373 -0.003845133 0.0156115405 0.037908163 -0.03148546 0.0035474896 0.033080887 0.022732522 -0.024816036 0.028922927 0.01135217 -0.029059505 -0.044819903 -0.031584464 -0.0102848895 0.025387052 -0.0058286674
19 0.027539138 -0.019612586 -0.016196154 0.013025988 -0.03278289 -0.04174795 -0.017863095 -0.019570148 0.029569354 -0.034542907 0.049395833 -0.031127477 0.015024234 0.037959706 0.011911213 0.0012988448 -0.03493941 0.001094915 0.03784034 0.047791425 0.018035386 0.03298341 0.0306026 0.013307918 -0.0021767505 -0.008148681 0.028651241 0.0046339147 -0.019043732 0.0053658374 -0.024517883 0.02564815 -0.047875524 -0.040851604 -0.032015264 0.04467571 0.04863515 -0.026046133 -0.015299104 0.042073976 -0.042099226 -0.046649445 -0.0034573562 -0.00741316 -0.033772886 0.0072888248 -0.029493487 -0.04984219 0.03010999 -0.013400316 0.028227855 -0.040008415 -0.048588503 -0.034297705 -0.026104165 -0.020875467 -0.008718871 0.038332526 -0.049007226 -0.033434883 0.003612101 -0.046479344 -0.022971535 0.029360082 0.041115668 0.031507637 0.044007663 -0.0048390143 -0.010226656 0.012499489 -0.0073947534 0.033172216 0.02231386 -0.0296731 -0.04609226 -0.001775492 0.0197475 0.032604042 -0.03329419 0.040018108 -0.042135168 0.014056455 -0.037349045 0.021356765 0.04124229 -0.03301362 -0.032637738 0.025524404 0.019744363 -0.008091163 0.01322763 0.0057183504 0.044351842 0.0376042 -0.021638824 0.0267159 0.027280394 0.031509843 -0.0343668 -0.015251316
virus -0.03264264 -0.0008350983 -0.048093297 0.0016304478 0.034590874 -0.0055475943 0.0133089535 -0.04176154 0.0025567897 -0.019577121 -0.041125692 0.03509954 0.04648224 0.048250545 0.0043158308 -0.0016361587 -0.000392735 0.033729386 -0.0029754415 0.019666623 -0.03977834 -0.011590481 -0.0029372796 -0.046171367 -0.030870724 -0.04202385 0.0004950054 0.032127608 -0.027982568 -0.02078265 -0.015346028 0.009256482 0.0024381392 -0.02785089 -0.022878205 -0.006392192 0.023318242 0.023130748 0.03204694 0.0056712516 0.048061978 -0.049478244 -0.023796571 0.044081066 -0.013389945 0.027970228 -0.043414988 0.012602139 -0.015064217 -0.018506575 0.008189142 0.016440261 0.003381323 0.013270687 0.0120203495 -0.022509469 -0.011227943 0.039553832 -0.03863144 -0.010666765 -0.033208955 -0.0311648 0.019298028 -0.004281152 0.0117593035 -0.010782052 0.0102809295 0.016259763 0.030326191 0.04725523 0.033021156 -0.027993752 -0.036151387 0.046384368 0.007835127 0.036381636 -0.009373508 0.042528067 0.01590756 -0.0007224679 0.048909035 -0.038449146 0.013736699 -0.04847392 -0.027354682 -0.020769764 0.02506001 0.02064861 0.02622408 0.010767352 0.046069074 -0.0084018335 -0.013556264 -0.03561864 -0.0071847327 -0.026085174 0.043034185 -0.004977096 0.035614017 0.047698084
for -0.0042459853 0.004250288 0.001688838 0.04443271 0.036127295 0.025870893 -0.0062302835 -0.008946598 0.036291543 -0.010904837 0.018732775 0.015163567 0.014352169 -0.028191078 -0.022428095 0.0081174 -0.020221187 0.00179727 -0.009487666 0.030009594 0.029850926 0.049796905 -0.046241056 0.005973041 0.046318356 -0.005165614 0.020498108 -0.028877927 -0.007511638 -0.044985082 -0.034651875 -0.042892423 -0.018832719 0.0041232705 0.013112877 0.0011869781 0.003288053 -0.031966724 -0.014841735 -0.0035474077 -0.032495786 -0.016389929 0.04684628 -0.036281683 -0.0054969303 0.043320525 -0.00622499 0.0036451593 0.008459736 -0.0076908693 0.026637066 0.009173978 -0.041790128 -0.025698662 0.0014447942 -0.028848518 -0.026190436 -0.021999825 0.0385358 -0.02857772 -0.0009499304 -0.020170832 -0.008230936 -0.036773194 0.0464803 0.042101074 0.040237132 0.01615483 -0.037729286 -0.013769291 0.021073569 -0.016875826 -0.021308744 0.042663325 -0.0015764609 -0.04180423 0.015525375 0.0069770813 -0.01437638 -0.027734531 -0.037437726 -0.01479293 -0.02563405 0.0069951788 0.015884195 -0.0339561 0.03424147 -0.0125689395 -0.0007643327 -0.010495625 0.030383322 -0.03439497 -0.014504384 0.040080372 0.035969768 0.012720022 -0.042669345 0.014633898 -0.002713479 -0.049973737
transmission 0.0027105436 0.0059953816 0.010281336 0.012438618 -0.04865097 0.008938707 -0.013363145 -0.045814335 -0.00536716 0.014701653 -0.0027438998 0.023797397 -0.0070293173 0.041842613 -0.013335966 0.04881673 -0.032225467 -0.009139061 0.0032656565 0.0040900595 0.046296287 0.030966256 -0.0125980005 -0.014638878 -0.03904935 -0.048723746 -0.020989751 0.011992991 -0.04130144 0.042814616 -0.029984165 0.012290202 -0.012600221 -0.015573226 -0.038849913 0.012632716 0.029915538 0.02317195 0.030930314 0.003594827 -0.004644431 0.019718658 -0.026737178 0.012247764 -0.015816797 -0.03208953 -0.0064930096 0.020299029 0.048676696 0.037235763 -0.02809248 -0.005153477 0.04865345 -0.035181772 -0.044645216 0.0191353 -0.02193947 -0.022038901 0.029880885 0.04238269 -0.014584471 0.034126107 -0.0045340657 0.04402605 0.018366884 -0.007127572 0.015178647 -0.020106101 0.008457422 0.013674904 -0.03185924 0.032574024 0.0075302348 0.036377992 0.031552147 0.008033503 -0.049055744 -0.023316478 -0.024329055 0.027938772 0.0074261054 -0.027092779 -0.0066233166 0.046297017 0.02387147 -0.0038272366 0.013023499 -0.002337087 -0.024892485 -0.0008494742 -0.020314325 0.009900294 0.017232206 0.007555414 0.013690118 0.02759019 0.040345278 0.043607417 0.04848111 -0.046227634
is 0.041278433 0.0058971867 0.039670292 -0.007324375 0.03800508 -0.004999876 0.010634743 -0.027564943 0.021118533 -0.025380766 -0.0067118183 0.0153811015 0.031715225 0.02252071 -0.03758212 -0.00703758 -0.004975546 -0.021067096 0.044017944 0.012385797 -0.019233739 0.046253014 -0.012488984 -0.034288228 0.034402978 -0.041135777 -0.047695376 -0.00236715 0.036736738 0.016831588 -0.0016195774 -0.014701795 -0.023316229 -0.0009878054 -0.03149964 -0.0019449964 0.032962155 0.0014741793 -0.02125801 0.019967925 0.041029546 -0.024534047 -0.048856247 -0.0090757385 0.018681195 0.006715454 -0.0338343 -0.026350224 -0.008039735 -0.0018549785 0.00093722343 0.014708828 -0.024864996 0.004650701 -0.024745489 0.033748817 0.0020468608 0.028947327 0.031267907 -0.028042555 -0.0029472113 0.015014891 -0.006093513 0.027174603 0.036761787 -0.0029470697 0.0073549375 -0.020431722 -0.019438421 0.047923114 -0.024963235 -0.038861025 -0.03744962 0.008012854 0.016063262 0.015407059 0.0034160838 -0.029158711 -0.03738662 0.02503946 0.04291978 0.01683228 0.04945909 0.027466062 0.042477813 -0.047323026 -0.01958561 -0.02988379 0.037541483 -0.018579412 0.045678083 -0.005061388 0.014942098 -0.0226982 -0.006336283 -0.019263828 -0.028670704 0.006412886 -0.039873086 0.031610165
to -0.019637262 0.007948112 0.038184334 0.0355633 -0.004471265 -0.03709816 -0.037796903 -0.04149126 0.0023970604 0.045788083 -0.03524934 -0.00825255 0.004839003 0.02731723 0.038193908 -0.020846296 -0.021242822 -0.021160746 0.026845697 0.033419553 -0.046837676 -0.04650861 0.03226104 0.03432921 0.0241567 -0.03497838 0.037877012 -0.03565241 -0.007220436 0.03190503 0.019755308 0.020964313 -0.028637815 0.0147824995 0.01412889 -0.0077198856 0.036314297 -0.008224465 0.00039422512 0.03564466 0.023612488 -0.048078775 -0.003276743 -0.01258 0.013318423 0.017758537 -0.04823264 0.004649807 -0.040609132 0.02643868 -0.01898594 0.04356536 0.027081203 0.042163048 -0.031129574 0.015712772 -0.030209696 -0.039754413 0.04368205 0.0111467615 0.047546376 0.020556536 -0.042047273 -0.022781981 -0.00109265 0.022618104 -0.026246894 0.03723805 0.0125368275 0.034093414 -0.034751117 0.037085366 0.0105551 0.038118448 0.01129242 0.03569946 0.048444655 0.038631324 -0.014628969 -0.017014634 -0.015750539 0.027390804 0.017422799 0.016623948 0.027085569 0.03223521 0.0455773 -0.00096614286 -0.004724849 -0.030923223 -0.046575285 -0.045915306 -0.018007886 0.014121082 -0.017861106 0.0035618544 0.043658327 -0.004368853 0.04982462 0.016233925
a -0.013809372 -0.010098718 -0.020791162 -0.03610774 0.03724983 -0.032362245 0.023627076 -0.004061796 0.006569065 -0.01800134 -0.017225135 0.029024173 0.012662601 -0.033716455 0.017436031 -0.0011104941 0.041749667 0.027854253 -0.041359354 -0.028929114 -0.042126667 0.026588645 0.023864899 0.048136447 -0.008569717 0.044249687 0.0044638515 0.045919005 -0.042042267 -0.01611241 -0.044146217 0.0391214 -0.044190206 -0.035460103 -0.0037203543 -0.023785485 -0.0070007443 0.0009489283 -0.025813317 0.048908535 0.028958771 0.020843003 0.04024687 0.04257602 0.015278641 -0.048339427 -0.02262031 -0.044960108 -0.002657283 0.037649576 -0.0054787397 0.016995344 -0.03800435 0.023661498 -0.0048441514 -0.013526548 -0.029513573 0.0012021065 -0.019811654 -0.018534888 0.04515436 -0.021504367 -0.013779841 -0.028357267 -0.016843546 -0.012862861 0.007684123 -0.04152435 -0.03858315 0.0001296997 -0.041929305 0.045004737 -0.03249047 -0.040481914 0.016049948 0.0034813508 0.029701602 0.011851095 -0.006513167 -0.03166002 -0.0052922256 -0.042086232 -0.030285193 -0.042475488 0.042003166 -0.028411854 0.035968874 -0.04313699 0.021113787 -0.020391775 -0.022573387 0.037039842 0.037457813 0.031942334 0.02444284 0.021571469 0.0016421564 -0.028159678 -0.017377626 0.03775442
and -0.019685209 -0.014053784 0.018314172 -0.029596865 -0.022706533 -0.049138952 0.010696806 -0.020155001 0.006832063 0.0035984889 -0.030087281 0.03522556 -0.025398016 -0.039100815 0.01019299 0.0017824881 -0.03175949 -0.013340376 0.029505063 -0.0011695847 0.0019693598 -0.00922494 0.010541797 -0.012244843 0.044846144 0.003411509 0.015628342 0.023148123 -0.040529013 -0.038720213 -0.0152056925 0.026270162 -0.001914274 -0.027346207 0.00086637586 0.0028836504 -0.019312298 -0.048093807 0.042561423 -0.013184596 -0.01075878 0.039618816 -0.006841384 -0.004654646 -0.00089433044 -0.027733624 -0.044639707 -0.008903742 0.01343656 0.029905152 0.023609016 0.033649016 0.005084716 0.017840337 0.03227831 0.0101700425 -0.02113365 0.025721598 -0.017094802 -0.021875013 0.03189185 0.013945486 0.005107414 -0.0074757114 0.035930816 -0.018732976 0.032385398 0.021986652 -0.0332338 0.045014326 -0.012819968 0.046562936 -0.009676348 0.016756091 -0.035688363 -0.0024838932 -0.04273616 -0.047769036 0.048774805 0.000304617 0.0014301427 0.045565773 -0.03283658 -0.034046195 0.017671157 -0.03486415 0.006456554 -0.033713005 -0.044809785 -0.044102777 -0.013396405 0.047158863 -0.045821797 -0.04998952 -0.012723662 -0.015009604 0.0060297363 0.03171817 0.006916642 0.040327933
between 0.02036139 -0.014356017 -0.0004576221 -0.014489494 -0.036220826 -0.012217343 0.03595713 0.039674107 0.0026882067 -0.01901697 -0.044125378 0.029897038 -0.026050879 -0.036138974 0.021743428 0.046078596 -0.01824217 0.01949871 -0.049862623 -0.007738102 -0.005314052 0.026000533 -0.01506437 -0.033879697 0.028767023 -0.00919845 0.035020616 -0.029192043 0.024049234 0.034061972 0.013571415 0.018818561 -0.0118303895 -0.033906177 0.034327652 -0.025483405 -0.03593074 -0.046099987 0.0064901 -0.009266853 -0.0015258566 0.02082653 0.032521177 -0.04570494 -0.044789948 -0.037607968 -0.011492778 -0.04301728 -0.02246629 0.013242278 -0.0161371 -0.04977907 0.010921169 -0.022033263 0.01745135 -0.022559976 0.0038957708 -0.0391469 -0.0295622 -0.016240656 0.028722916 -0.0068843737 0.027673092 -0.035423625 -0.01938404 0.021284308 0.035634343 -0.04892677 -0.0035352819 0.015353765 0.023085106 -0.011308741 -0.030675555 0.014382508 0.003670644 -0.020310748 0.037091423 -0.022841573 0.03873452 0.036904383 0.035205197 -0.022401227 0.015634488 0.033421267 -0.0132208355 0.04628927 0.005354978 0.0035327896 0.025519442 -0.03721137 -0.040775776 -0.028956462 -0.020686222 0.04225636 0.0009219162 0.045827713 -0.032124482 0.04445285 0.017984103 -0.0070678703
time -0.0035782233 -0.01626674 -0.037774336 -0.037144803 -0.01395743 -0.024340285 0.042128865 0.022911612 0.025902305 0.016599368 0.020593394 -0.014472414 -0.0013683811 0.032314707 -0.0016278252 0.02442671 -0.02882787 0.037245583 -0.03981204 0.0071513653 0.0017113574 -0.04358555 0.011044048 0.047448162 0.005628608 0.0455618 0.04757389 0.04831222 -0.046804 0.022692058 0.03389329 -0.007963203 -0.023559738 -0.025984062 -0.0044524446 0.0064522997 0.0134425275 -0.016406238 0.03276335 -0.0154024735 0.036462378 -0.04356141 -0.0188707 -0.017834842 0.045417536 0.037588682 0.0211352 0.016042259 0.032916177 0.046617176 -0.020092 0.0072077885 -0.04940728 -0.039490066 0.029075596 0.028658714 0.022980873 0.0137628205 0.03633325 0.034577515 -0.025118923 0.0012666583 -0.0124611035 0.037333358 -0.028514016 0.04910927 0.03504007 0.029184546 -0.030797983 0.049983952 -0.03281617 0.01613528 0.040645804 0.031173889 0.013049271 0.044042442 -0.03387331 -0.026178135 0.008979581 0.016176645 0.013144556 0.026411537 0.032629695 -0.037508536 -0.035640918 0.007010758 -0.03988875 0.0055448897 -0.039198935 -0.043008924 0.035503272 0.014054429 0.008330345 0.043545995 0.039732944 0.026969168 -0.003931392 -0.015571307 -0.01637391 0.031159285
serial -0.015132964 0.03179909 -0.039432574 0.0033575185 0.044058923 0.03503753 -0.0383765 0.03649879 -0.018009424 0.02631015 0.034589503 -0.016031157 0.005387306 -0.017496943 -0.021798551 0.004258193 -0.035440005 0.033508662 0.045634102 0.018955242 -0.013641346 -0.020670844 -0.046981215 -0.0445186 0.004907809 -0.001866065 0.036719594 0.024391863 0.026606884 0.0048701763 -0.0012376197 -0.024674356 0.012646083 0.012388874 0.036736596 0.04436132 -0.022991205 -0.028596593 0.018993188 0.038744796 0.011618078 -0.04807682 -0.047107708 -0.019612873 0.0014736764 0.02839813 -0.0018495545 0.0026768222 0.008422185 0.033385087 -0.044164646 -0.03151957 -0.0035001524 -0.009159099 -0.036922216 -0.049029972 0.02212647 0.018068682 0.041920234 -0.013550542 -0.04392624 0.0064108 -0.039418854 -0.022267342 -0.012720276 0.027461734 0.016646866 0.00749116 0.0065973625 0.019250903 0.025992583 -0.043839015 0.025857735 -0.021516098 0.026759934 -0.049074817 -0.02738638 -0.035414208 -0.027535522 0.011967242 0.010711111 -0.033642195 -0.039875887 0.03442912 0.016189884 0.030350711 0.049291383 -0.035459496 0.04478221 -0.0443545 -0.03135488 0.03000443 0.04250357 -0.03750361 0.03473549 -0.002559103 -0.0058375485 -0.016979218 -0.036671888 -0.03271892
interval 0.04764146 -0.0066249 0.027695153 -0.043504585 0.02194203 -0.016823433 -0.022019995 -0.035901807 -0.049420215 0.032438766 -0.03924463 -0.021513296 -0.0067387596 0.0028627738 -0.013508629 -0.027645588 -0.042082895 -0.039360594 -0.037393678 0.03797051 0.016181398 -0.010156058 0.04071175 0.016665723 0.0019781478 0.025615584 -0.0006886348 0.030673113 -0.0062543526 0.021351289 0.0013316385 -0.030504739 -0.0067309365 -0.044788398 0.008787762 -0.026877714 0.049623933 0.039086964 0.024641182 -0.022088671 -0.00546664 0.033322264 0.02181146 -0.03563378 -0.025870336 0.019725922 -0.019419944 0.04570503 0.04555588 0.038985815 -0.003956247 -0.04120314 -0.0465688 -0.038087428 -0.020440042 -0.019533634 0.026688162 -0.038591754 -0.019320894 -0.035700344 -0.012105726 -0.04973954 0.048471797 -0.0459314 0.00082063675 0.011966072 0.007359851 -0.03041091 -0.02570169 0.026850987 -0.03360902 -0.0017177463 -0.019182373 0.01602808 -0.0052412637 0.043088365 0.021931361 -0.039469767 -0.023760164 -0.017350815 -0.043717694 -0.04242393 -0.009218715 0.0035846941 0.026937235 -0.033154167 0.014395189 0.0457657 -0.04845307 0.03740311 -0.020770395 0.030909631 0.02838147 0.038155925 0.004445683 0.013397802 0.049670313 0.022670213 0.0098178275 0.038288046
than 0.039328467 -0.026147485 -0.011383057 -0.041895486 -0.03164648 0.02157921 -0.025494302 0.024660174 -0.03255383 0.027044747 0.0019233935 -0.0049326643 0.002821315 -0.0064911246 -0.014413975 0.006192304 -0.026871396 0.023928251 0.02155267 0.0067506917 0.028431956 -0.00084195286 0.03951523 -0.014564741 0.040789906 0.021632243 0.019282293 0.026305247 -0.04131756 -0.046410035 0.010349594 0.04949769 0.027366493 0.001016058 -0.047718693 0.0075709336 -0.036116492 -0.048055876 -0.045316268 0.0024825558 -0.043145597 0.011811174 -0.011078261 0.047282968 -0.015129112 -0.0062655695 0.017310608 -0.0062194467 0.008719228 -0.002339244 0.02972963 -0.028198933 -0.038520288 -0.008141793 -0.045746244 -0.04478499 -0.025956476 0.024525192 -0.026715947 0.020444605 0.028813329 -0.025174154 -0.01694449 -0.035836816 0.01248927 0.03802124 0.038407233 -0.030699385 -0.0449644 -0.036090136 -0.00375849 -0.0048370846 -0.01431755 -0.024448752 0.012936797 -0.036834538 -0.028513944 0.034414236 0.009112965 0.029930007 0.027902637 -0.015520893 0.028710935 -0.00043543428 0.035732854 -0.021656156 -0.035110414 0.03256781 0.0034354925 -0.0025757775 0.014894988 -0.0067356117 -0.0007519126 0.008795679 0.038110625 0.008229028 -0.011204995 -0.0035355464 0.013855074 -0.037933767
be -0.01818652 -0.015553273 -0.026394844 0.045892153 -0.017843198 -0.015175093 0.006232906 0.0019206293 0.027016494 0.0455286 -0.034970284 0.030509446 -0.015414812 0.036641154 0.006326128 0.04701091 -0.012813114 0.039616417 -0.038307954 -0.01838852 -0.04352658 0.0025847666 -0.031634618 -0.023625875 -0.00061653927 0.008837678 -0.0367286 -0.015814114 0.024454866 0.0034304857 -0.044645596 -0.008515537 -0.04034158 -0.026930083 0.014566693 0.04324324 -0.030945921 -0.022130061 -0.032614663 0.03505895 -0.0316775 0.021561693 -0.027477657 -0.04660053 0.023389664 0.019506428 -0.01732893 -0.026401235 -0.01129825 0.034374822 -0.031528413 0.0037765987 0.04850656 -0.03328824 0.04958235 0.04205693 0.038223792 -0.023858024 -0.013981797 0.047277275 -0.04736781 0.00078394264 -0.013011336 -0.031766355 -0.01583308 -0.0285805 0.029039111 0.033269096 -0.04869869 -0.016327929 -0.0144176 -0.0320979 -0.009055089 -0.0037042983 0.030034196 0.03589573 -0.019828452 0.008303225 -0.0373528 0.049771395 0.019993354 -0.026255025 -0.021239733 -0.029777098 0.029366266 -0.04620117 -0.0143130645 -0.020955492 -0.035884775 0.007991742 -0.037888538 0.03232113 -0.032806028 0.017430115 0.0441744 -0.023846542 0.026083741 0.024391416 -0.026166236 0.012803029
5 0.02100337 -0.028343333 0.027085792 -0.030354096 -0.013727449 0.027286772 0.048897218 0.02712207 0.033050407 -0.019294262 0.03039788 -0.0050561912 0.03588288 -0.027767599 -0.036747325 -0.023860931 -0.0054321885 0.038255397 -0.0060112104 0.011134911 -0.044632327 -0.045634724 0.028815065 0.025435995 0.038164858 0.04635985 0.022911694 0.037342217 -0.030861044 0.0053006783 0.0037411228 -0.014461745 -0.01587094 0.041796494 0.03726052 0.039559398 0.0027055852 0.0019568317 0.039468 -0.008152556 -0.006114077 -0.008152019 -0.0153573975 -0.01909442 0.04062054 0.020875003 -0.02212714 0.025624823 0.00039838627 -0.003325045 -0.013920605 0.0054651387 -0.013368547 -0.044399012 -0.03364855 -0.009906758 -0.0021532178 -0.045429315 0.0023680218 0.022888768 -0.044228863 0.023840476 -0.0015649796 -0.026094174 -0.03992158 0.013986554 0.010083508 -0.024120761 0.0070941225 0.037858877 -0.03784144 -0.006395649 0.0004064329 -0.0173393 0.036484424 -0.030525256 -0.0024523735 0.011110555 0.043063823 -0.04752642 0.039271865 -0.024770046 0.003140293 0.032116327 0.012103178 -0.028896881 -0.01732266 0.006836582 0.023546342 -0.006515287 -0.046708502 -0.029793357 -0.037784003 -0.0027980097 0.03652103 0.032305907 -0.02150073 -0.03466239 -0.04227365 0.018691156
days -0.021125067 0.046836857 0.03997648 -0.015431453 -0.042577077 -0.01553607 -0.030671382 0.026674319 -0.031157995 0.03572658 -0.03741201 0.025613021 -0.043180227 0.047446374 -0.012043666 0.01907089 0.036776815 -0.026083851 -0.04079367 0.031477336 0.015569817 0.01849432 -0.016659833 0.03755481 0.027673174 -0.04272778 -0.026728583 0.037981097 -0.0010543577 -5.4635108e-05 0.041215885 0.043101672 0.037309613 0.037528347 0.022591356 0.009067226 -0.021499563 -0.0020930283 -0.03647386 -0.029527212 0.026226725 0.0018911846 0.023127142 0.017903674 0.022216368 0.011932183 0.03768797 -0.034632158 0.02462956 -0.041028835 0.042292964 0.025608014 0.040041458 -0.01911739 -0.018001735 0.03199463 -0.0040690415 0.03747603 -0.043247845 -0.044123936 0.045075778 0.0071263425 0.0050981045 0.010663986 0.03175329 0.011194743 -0.04133594 0.027126815 0.021755222 0.008435536 0.04745925 -0.027628709 0.0018923506 -0.031314924 0.0006193891 -0.026872456 -0.04736178 -0.036105655 0.046014 0.010799348 -0.0012682676 0.038291227 0.010140479 0.045564864 0.008390773 0.008856617 -0.015358139 -0.049623348 0.0013239011 0.018197943 -0.027072882 0.01822206 0.03230084 -0.022037113 0.009758852 0.0107729435 -0.031896748 -0.039612938 0.049164977 -0.009916972
– -0.0055626146 0.0096308105 0.00864191 -0.010469116 -0.042348374 -0.02027812 -0.019492222 -0.027268423 -0.009083234 0.03846142 -0.03228172 0.00030558184 0.013157871 0.012802664 -0.009919547 0.042313073 -0.00486058 -0.014138244 0.047690716 -0.029722882 0.04060297 -0.034514654 -0.018681526 0.016349744 0.009402823 0.0080682635 -0.0076199174 -0.018111885 -0.013438892 0.012144387 -0.024582768 -0.042682864 -0.037632845 0.028483842 0.0105038285 -0.03887806 -0.03618735 0.032342162 0.04334661 0.0098261945 -0.008017205 0.008363545 0.04265585 0.0056605116 -0.040624093 0.046288792 -0.04154142 0.020112399 0.012705591 -0.013737608 -0.04366492 0.035037305 0.04155079 0.01470745 0.013821434 0.041567754 0.013794232 0.023338746 -0.04486947 -0.03475343 0.012514714 0.014542226 0.038340103 -0.02569505 -0.024618482 0.03127754 0.045745004 -0.026452113 0.0047060363 -0.03004918 0.026046183 0.024036016 0.04547519 0.037253093 0.0034740455 -0.025386095 -0.045954086 -0.00019033998 0.02172022 -0.008919131 0.02831756 0.030676555 0.021575306 0.02204493 -0.026575899 0.027396027 0.014069293 -0.048586417 -0.018834913 0.047274742 -0.020789672 -0.03828595 0.027453076 -0.02925185 -0.047542978 -0.00097029284 -0.020723403 0.01581714 -0.011550713 0.046976317
are 0.013778213 -0.005494941 0.014606927 0.049195413 0.02753916 -0.024237765 0.037506666 0.022656094 -0.043412793 -0.0096357465 0.015430082 0.037346635 -0.030154252 0.020260181 0.007043481 0.027480986 -0.022616351 -0.016029418 0.024777498 -0.03034755 -0.04757291 -0.012548935 0.048813228 -0.014246356 0.0072193965 0.019013647 -0.04114916 0.035580028 -0.014454402 0.021960627 -0.03833556 -0.022151424 0.030295733 0.03263272 0.00488957 0.017381478 0.0029101372 -0.028470326 -0.0069477446 0.016904268 0.035280887 0.02790742 0.026326273 0.040978264 0.043759 0.046774697 -0.03623228 -0.020665646 0.027724195 -0.034783803 0.010774124 0.021284726 0.008496892 -0.0035881177 -0.0408834 0.03631741 -0.039185844 -0.011159945 -0.018597245 -0.027560472 -0.0491289 -0.042574167 0.010497402 -0.019340027 -0.025309836 0.017978791 -0.010469295 -0.048621632 -0.0399336 -0.017922413 0.03816359 0.0028896704 0.006432414 -0.04200697 -0.029766714 0.035293292 -0.023916781 -0.002605427 -0.0051650517 -0.016343296 -0.041253697 -0.025570178 -0.046349265 0.02218375 0.040235523 -0.048408806 -0.04407349 0.03744601 -0.047606077 0.049095836 -0.0082782395 0.0010340586 0.016442548 0.046277348 -0.038154863 0.026057396 0.038070332 0.020973172 -0.049274113 -0.040900636
viruses -0.040914617 0.0022503138 -0.020388162 -0.01841743 0.03281362 -0.027715636 -0.041899145 0.029079448 -0.044569075 -0.00041224808 -0.023670757 -0.003764391 -0.029268622 -0.039266694 0.046199095 -0.001955688 -0.0017162934 0.043586086 0.03406744 -0.0043814555 -0.04339565 0.0038734786 -0.0032292828 -0.024196124 -0.03641802 -0.00848012 0.045531485 -0.04223478 0.035012353 0.0029307827 0.00065705925 0.030999068 0.00013210624 0.017298829 0.045525063 -0.04927924 0.028171133 0.043317687 0.02394997 0.008635439 0.026564527 0.045157585 -0.009166859 0.030302737 0.0031592138 0.021767367 0.015680168 -0.0031422153 -0.04457277 0.026101496 -0.004364334 -0.013772417 0.036605407 0.030265715 -0.038042653 -0.038458884 -0.016703915 0.032026384 0.047410753 0.04302192 0.046227064 -0.034096792 0.048325602 0.039202724 0.002909612 0.01585916 -0.037497234 0.00078638643 -0.025616813 -0.040781938 0.047569837 0.042949032 0.04639859 0.040445853 -0.014376987 0.028875235 -0.016076885 -0.019790614 0.023555305 -0.0123949535 0.0010429733 0.015373979 -0.03506615 0.022358824 0.002549611 -0.035207473 -0.0059968345 -0.009350739 -0.041371226 0.03187872 -0.0072548017 -0.009322487 -0.005666554 0.006607782 0.023444105 0.015942145 -0.049819995 -0.04347799 0.011381805 0.01260538
shorter -0.034522437 0.035619173 0.014860842 -0.03929764 -0.04704347 -0.015366472 -0.013569176 -0.0049514063 0.04627068 0.008882321 -0.003799677 0.020073261 -0.009221483 0.014993262 -0.005170036 -0.012572538 0.04202019 -0.029290592 0.0017351732 -0.010687459 -0.047790695 -0.026496518 -0.03604146 -0.023894548 0.01931883 -0.019086743 0.012096237 -0.016723372 0.04647005 -0.039180316 0.008976519 -0.021688772 0.010511339 -0.01842748 0.0030104518 0.0041868575 0.043015588 -0.01451062 -0.010970067 -0.03940233 -0.025271332 0.034723368 -0.040109195 -0.041199494 -0.025766516 -0.000400614 0.009816479 0.012933705 0.006102167 0.028939832 -0.0430285 -0.042554595 0.022731807 -0.027887106 -0.018473852 -0.043723274 -0.010075629 0.0027697794 0.027369048 -0.02629372 0.03565726 -0.026736308 0.023125459 0.047801945 -0.025064254 -0.015174497 0.00830983 -0.030745422 0.012448929 -0.024900818 0.046366107 0.024969641 0.034849633 0.048395548 -0.0041493773 -0.024177348 -0.0032072663 -0.012145054 0.027352307 -0.012095679 0.030718591 -0.030310249 -0.041898392 0.01022296 -0.010129582 -0.022787487 0.018432047 0.023895536 0.029616084 0.00054860115 -0.049686994 -0.03455782 -0.0026642904 -0.010204591 0.0053748004 0.043908063 0.03109065 0.041591752 0.044518594 0.044118468
from -0.045234133 -0.030331433 0.039032612 0.032564532 0.03196558 -0.04284346 0.016632114 0.029839467 0.02728108 -0.04693395 -0.038307596 0.049872722 0.031476226 0.025846388 -0.027622605 0.011538483 -0.024341345 0.045535658 -0.04958265 0.04911462 -0.015534092 -0.044912387 -0.048020925 -0.03915782 0.044924665 -0.046772182 -0.0046453103 -0.014966227 0.03398556 -0.0024855733 0.018475462 0.038940463 0.03363407 -0.047559597 0.01732694 0.002585031 0.04584885 0.0028648376 -0.04951931 0.0061353445 -0.0436955 -0.006589342 -0.04734075 0.02792697 -0.029946173 -0.043067515 -0.049476624 -0.045362413 -0.043394804 0.028571341 0.019849602 0.006868221 -0.0003586188 -0.029098917 -0.042728435 0.025847409 -0.007753242 -0.03916805 -0.04525541 -0.008913793 -0.018772578 0.044858564 0.037494984 0.020308282 0.028009463 -0.015389524 -0.008042134 0.047164273 -0.045496773 -0.01081549 -0.04862825 -0.03613801 -0.012651037 -0.014510203 0.049206343 0.01945902 -0.041951634 -0.031001925 0.006167613 -0.012984205 0.007448245 0.018385421 0.03013939 -0.0054474473 -0.029805733 0.021527145 -0.037915967 -0.024663223 0.03141329 -0.008959867 -0.010515869 -0.027395118 -0.03858135 -0.024576236 -0.016994022 0.039196085 0.040496636 -0.035803318 0.011120629 0.025484215
appearance 0.029598836 -0.042177476 0.023224268 0.032646302 -0.023962235 0.005499292 -0.03489858 0.03942653 0.022240844 -0.014358662 -0.009885181 -0.044468343 0.008798849 -0.03917514 0.048559036 0.04401106 0.04427365 -0.046870496 -0.048114456 -0.011866044 -0.043702375 0.042463567 -0.041547157 -0.026581908 0.02643812 0.0074044466 -0.01829239 0.044439804 0.038549114 -0.031253435 -0.007813416 -0.03394996 -0.038918663 -0.004279673 -0.017561913 0.034358967 -0.03702303 0.006673921 -0.044445004 -0.021526266 -0.027142525 0.0010649785 -0.0146486275 0.023309913 -0.04921509 -0.048488032 -0.02677306 -0.0047951564 -0.015992008 -0.0070334077 -0.015278317 0.030410204 -0.044820644 0.04971471 0.024913203 0.025660228 -0.02480793 0.027045224 -0.008746315 0.01279125 -0.017590463 -0.04842825 -0.030748237 -0.026410474 -0.016147565 0.005922556 -0.031800233 -0.035181798 -0.041997634 -0.008667611 0.00020546839 0.03867011 -0.027076125 -0.008404005 0.046685074 0.04326922 0.038599517 -0.02056632 0.020037461 -0.036305368 0.030879807 0.03275845 0.03626669 -0.037658356 -0.008424997 0.03783336 0.035915744 0.010731578 -0.007529199 -0.010110699 0.01442213 -0.0066855177 -0.006016694 0.025973964 0.019337084 0.024103332 -0.008684874 0.040268984 -0.0052729957 0.048179198
symptoms -0.0012066849 0.0071740523 -0.024703754 -0.036589157 0.032474946 -0.040058743 -0.026623238 0.018970992 0.04212017 0.01810063 -0.012846388 0.030076433 -0.005219687 0.015776087 0.034475807 -0.029928613 0.010796584 -0.004767835 -0.040287327 -0.0016674884 0.007844567 -0.018632341 0.044273842 0.0035963878 0.024517838 0.011161875 0.014792684 -0.0022620074 -0.010402333 -0.00613147 -0.028438319 -0.033500075 0.03979231 0.03526778 0.018741537 -0.028334295 -0.028343273 -0.023914063 0.033388745 0.045586932 -0.037079312 0.03622434 -0.030714095 0.016534839 0.027054798 0.014173243 -0.039268218 0.0027302876 -0.04025819 0.0050289407 -0.038879752 0.04929662 -0.025685979 0.018944632 0.025873516 -0.027271498 0.03400976 -0.00015406683 -0.04190737 0.032453183 0.0392473 -0.022725964 0.011028469 -0.024360884 -0.018732168 -0.025284385 0.0313535 0.046208452 0.04985832 -0.035918783 0.01472057 0.020242501 -0.007088732 0.03483374 0.03511894 -0.045302298 -0.047525525 -0.008187495 0.021191385 -0.043317616 0.011411272 0.00061715767 -0.017739557 0.040119115 -0.046810318 0.024858642 0.0144389905 -0.027825607 0.02315921 0.038749967 -0.03578043 0.047268223 -0.022497047 -0.034148537 -0.012896933 -0.035873067 0.015406977 -0.049302306 -0.04587642 0.018755708
while 0.04718336 -0.039678942 0.035461094 -0.008217584 -0.03040645 0.014279354 0.0375841 0.034237016 -0.035257697 0.04116336 0.0039180294 0.04148836 0.0022444353 -0.017533101 -0.0057708398 -0.026385738 0.033083085 0.015666548 -0.032981656 0.011546027 -0.029483784 -0.045066465 -0.017656814 -0.018231153 0.036205295 0.032652024 0.0047908053 -0.0026497245 0.044482473 0.037040737 0.017887067 0.045377437 -0.043984402 -0.017331302 0.021361243 -0.008972693 -0.035236277 0.005876351 -0.022968054 -0.0032434948 -0.01813363 -0.03352634 -0.001191806 0.022528056 -0.04761505 0.011978984 -0.033295035 -0.017342877 0.032945324 0.025944736 0.022048261 -0.009587526 0.023079302 -0.023490345 0.028932165 0.036488008 0.04776666 -0.049789917 0.036876146 0.0027864203 -0.048693646 -0.034668542 0.019792233 -0.02844273 -0.013559736 -0.029893268 0.027681258 0.00022538751 0.026927385 -0.048797455 0.0253844 0.016207647 -0.02552848 -0.033456683 0.011555076 -0.048322033 0.007531356 0.005579721 0.029898632 -0.031842925 -0.0055352934 0.04601873 -0.02454015 0.029229883 0.016724098 -0.0011642464 0.045161795 -0.0058966056 0.041642223 -0.03220947 -0.037123848 -0.031977497 -0.03393992 0.03202988 -0.032205425 -0.033843435 0.016804148 -0.028424775 -0.01831175 0.0030240305
3 0.045108784 0.005522169 0.039173815 0.0295205 -0.0064325817 0.030111779 0.027928684 0.022284415 0.02563322 -0.026567472 0.041771952 0.018544223 -0.0032799356 0.009630848 -0.040187575 -0.0061860457 0.047382023 0.044668328 -0.047423612 0.048334014 -0.01202178 -0.0027227625 -0.022872163 -0.010441314 -0.028790224 -0.02312149 0.030304227 -0.034688234 0.049712215 -0.019730879 -0.023571862 -0.02250967 -0.032554388 -0.027881289 0.020515058 -0.018521667 -0.047816195 -0.009729959 -0.004955936 0.0023090616 -0.049569346 0.0017772317 0.01727232 0.027937245 -0.03411466 -0.021153867 0.036186766 0.034077514 0.005250193 0.04702634 0.03901324 0.04775058 -0.004177831 -0.03312303 -0.013683535 0.007309139 -0.011167932 0.009656727 -0.04097159 0.0090574995 -0.009247065 0.035094548 -0.042368032 -0.037759077 -0.04593542 -0.0060130134 0.03468504 0.04951675 -0.019114077 0.00552503 0.019895945 -0.031251706 -0.036201287 0.033642318 0.037697542 -0.024110138 0.008126318 0.011016559 -0.042593803 -0.0075891986 0.03490628 -0.0455992 -0.021782493 -0.024820829 -0.014634214 0.016362693 -0.02925986 -0.046454776 0.03060415 0.0354785 -0.042186618 0.019487884 -0.033008598 0.0047431476 -0.038862266 -0.0013406053 0.027737927 0.033939335 -0.03289746 -0.034886073
this 0.012754951 0.037028257 -0.009262346 -0.02082901 -0.037475336 0.012880627 0.0164922 0.023451973 -0.04223422 -0.018055797 0.026463572 0.0024315715 -0.00013745949 0.027649533 0.007036589 -0.049739398 0.027934525 0.037168037 0.01768161 0.03278966 0.03915867 -0.0021616705 -0.038709283 0.0481754 -0.02103932 -0.011693705 -0.019457018 0.046359483 -0.04405562 0.005649902 0.023295727 0.020307075 -0.042878818 0.00379337 -0.025194013 -0.005883254 -0.022165298 -0.048138965 -0.0022797957 0.029891957 -0.016070984 0.01710074 0.013028171 0.0031091087 0.0015734062 -0.015731942 -0.03449837 -0.028055405 -0.022012532 0.026014816 0.020906005 -0.036565863 -0.02175889 -0.027463436 0.035587024 -0.021838784 -0.024820758 -0.0043667555 -0.036540378 0.02859446 0.028807428 -0.02421385 -0.027140403 -0.021523476 -0.031788945 0.049277376 0.03122035 0.012807969 -0.03353498 -0.017402958 -0.035790455 -0.04956306 0.01626322 0.04251642 -0.032403577 0.047975387 -0.045191277 -0.024458779 -0.0435341 0.0068449154 -0.007869422 -0.027983988 0.01133547 0.010070503 -0.029143441 0.048024032 0.031764414 0.00061630085 -0.024868501 0.046211723 0.021539483 -0.017444622 -0.041963972 -0.01749643 -0.012760032 0.040106144 -0.003221631 -0.010601379 0.016336028 0.038541425
that 0.026041973 0.022962678 -0.0060822964 -0.009653427 0.004591156 -0.0051339157 0.048545267 0.024120871 -0.023206199 -0.0057085752 -0.04624039 -0.047599223 -0.041460145 0.011567783 -0.043126594 0.04987904 0.04271264 0.001840841 -0.0030797496 -0.0070293657 0.03619769 0.0015773289 0.018111411 0.016060624 0.045177784 0.0469247 -0.031447686 -0.021174287 0.03095648 0.04316591 -0.031371094 0.0117146 -0.0098706 0.0314114 -0.03245993 -0.04695927 -0.016879596 0.027279679 0.034430016 -0.028154468 0.014245201 -0.001007773 0.03031243 -0.012055468 0.039619792 0.0135436095 0.027192343 -0.021117795 -0.04586282 -0.01727581 0.010736726 0.04900446 0.032378826 -0.009642243 0.022479717 0.041730132 0.032487843 0.028908078 0.04776231 0.0020413622 0.016978446 -0.011143576 -0.048298087 -0.01767974 0.0024112947 -0.023616934 0.017562117 0.035630535 -0.022399783 -0.009630345 0.004642904 -0.014246512 0.0017155036 -0.026000846 0.048360173 0.029461276 -0.03239508 -0.01068759 0.02097157 0.010066319 -0.04117749 -0.006323278 -0.033044435 0.048404302 -0.032843724 0.01603124 -0.021296132 -0.029073775 -0.04479679 0.013177883 0.025611352 -0.035251368 0.020857621 0.014287796 0.00867039 -0.017841946 0.027012233 0.045249555 0.024117481 0.038459312
can 0.02496833 0.042492952 -0.016296018 0.024839569 0.019754637 0.042986225 -0.034811974 -0.036131404 -0.0339695 -0.016469143 0.032484617 -0.016884826 -0.048716057 -0.023306692 -0.04843856 0.04441018 0.00832244 -0.0021181926 -0.048738874 0.04629303 0.03623089 0.041304182 -0.04657221 -0.04012394 0.0019030795 -0.00088914484 0.047868434 -0.0059142336 -0.037206758 -0.0288854 0.0014493577 0.0324667 0.025529359 0.019661676 0.022588018 0.016727354 0.0033969171 -0.019738127 0.0027704835 -0.026971329 0.040746618 -0.02397542 -0.023927927 -0.016567528 0.01473682 0.025946569 0.047910955 0.034218762 0.022727717 0.018356588 0.003140498 0.030252445 0.016202997 -0.03602959 0.0032109246 -0.048819195 -0.040091265 0.01650938 -0.022531604 0.03690474 0.026028935 0.028521981 -0.02227143 -0.048717596 0.03888521 -0.04534463 0.048812304 -0.0004451275 -0.030476665 -0.0048781857 0.020188455 0.02913132 0.04370257 0.031405773 0.031958666 0.0024258494 -0.047706712 -0.022947742 0.01056347 0.021392096 -0.008279622 0.009776592 0.028216992 -0.0276137 -0.03513801 -0.04774932 0.037078682 -0.04518613 0.014547195 -0.010289025 0.010754846 -0.009245671 -0.0056112893 -0.008012973 0.014644269 -0.049934924 -0.022284627 0.037087213 0.0421328 -0.011420667
in 0.0047944672 0.01701006 0.0485113 -0.04712199 -0.009367667 0.040699888 -0.03657955 0.03177433 0.009780992 0.006001722 0.028612342 0.04015303 0.02269416 0.0043014176 0.019102383 0.022370245 -0.015531696 -0.03630655 -0.045041144 0.021431912 0.037997734 0.009420563 -0.0050103776 0.026853267 0.00936364 0.03971341 0.009569276 -0.0368747 -0.01107062 -0.035933208 -0.028633071 -0.018906677 0.022342231 0.01973008 -0.028907513 -0.019831931 0.049973812 0.011562251 -0.029144812 0.009716224 0.027837705 0.018620197 -0.038238753 -0.0036807433 -0.0019776449 -0.0020161383 -0.03484087 0.02575009 -0.044312276 0.032358456 -0.023975158 -0.031264268 -0.0015434735 -0.018154047 0.011512339 -0.030543877 0.024640296 -0.040486954 0.017806243 0.0110969655 -0.04517609 -0.02635268 0.019332219 -0.0016266331 -0.041936003 0.011837803 0.043624725 0.04014614 -0.028217066 0.0101732835 0.049819563 0.014422748 -0.047727562 0.03980812 -0.044994295 0.01981299 0.038995836 -0.008610465 0.04981481 -0.045965042 -0.01664418 -0.005314756 0.019176971 -0.03338714 -0.042683315 -0.0077873245 -0.010492586 -0.04790325 0.009892724 0.028378312 -0.009209812 0.017699089 -0.021079827 -0.02166487 -0.032655515 -0.03744657 -0.014675856 -0.039590858 -0.026850259 0.03011148
major -0.038447488 -0.016450264 -0.038173057 -0.03750471 -0.043710064 -0.04654927 -0.010275401 -0.031729475 0.0140274055 -0.03899578 -0.048594356 0.03532589 -0.03513924 -0.012432061 -0.038524985 0.0076386817 0.04593498 -0.048083257 -0.015727937 0.022803318 0.0021883026 0.04516984 0.044436816 0.0105267875 0.03979415 -0.043429937 0.02520645 -0.048053112 0.029823687 -0.011112798 -0.011478376 -0.023556495 0.023646664 0.0248137 -0.029613173 -0.011861421 0.008154165 -0.022054791 -0.03270613 0.029160056 -0.007023193 0.03108916 -0.033498704 -0.0070780404 -0.0072269663 0.035711635 0.02409042 -0.012007128 0.026736643 -0.023718918 -0.041297913 0.017061662 -0.030581499 0.009085238 -0.02003702 0.03898075 0.0015709773 0.009161137 -0.04458157 -0.018305432 -0.028687323 -0.045598425 -0.037136864 -0.009850703 0.011308778 -0.039186727 0.026731025 -0.018300068 0.038972963 -0.025626814 -0.005212415 -0.021355212 -0.032273315 0.039917413 -0.025840832 0.023524176 -0.030455245 0.0055666342 0.005621612 -0.026116861 -0.030347645 -0.016877472 0.006631624 -0.025524426 -0.0017075315 -0.0041488186 -0.015631653 0.0106137395 -0.034342244 0.022149 0.04208989 -0.027439654 -0.0316294 -0.01886866 -0.048921477 0.048381794 0.0347245 -0.04893246 -0.018933011 -0.00031782314
driver 0.0061507337 0.024903324 -0.0037128218 -0.0013312921 -0.010142006 -0.0049310923 0.04336006 0.0007979758 0.04393847 -0.045292713 -0.023613334 0.009308435 -0.04638722 0.03748138 0.037919987 0.047346342 -0.008058347 0.047745477 -0.022244787 -0.04474206 0.021023337 0.0206591 -0.027062178 0.04888333 -0.042434156 0.03049909 -0.008879282 0.00960201 -0.016701914 0.03930937 0.010023035 -0.03026092 -0.049082816 0.008473851 -0.027513957 0.02194852 -0.042884924 0.02017406 -2.8360635e-05 0.011985697 0.021816563 -0.003544055 0.0035548322 -0.03557211 0.018603865 -0.035922863 -0.013525285 -0.03938042 0.0015372746 0.0034007207 -0.032622457 -0.0012886897 0.045031738 0.017273989 -0.045669496 -0.04440366 0.025591422 0.014499437 0.0020012744 -0.033737317 -0.030986452 -0.029488003 0.0075479522 0.04786278 -0.04474398 0.03299806 0.012294196 -0.042271852 0.018955376 -0.021492803 0.022513796 -0.037377395 -0.0053157434 -0.013944425 -0.007068157 -0.002685167 -0.005476393 0.032200698 0.04434449 -0.033339813 -0.049419988 0.0069652423 -0.007460892 -0.045305252 -0.044358827 -0.045039654 0.021449152 0.032019686 0.043353427 -0.028745806 0.03408954 0.01574495 -0.03512261 -0.012559198 -0.022629404 0.013775241 -0.03708191 -0.033230294 -0.009851158 -0.0034388304
number -0.045753207 0.0033239126 -0.040736068 -0.0018370859 -0.027245237 0.021230642 0.046875868 0.0059338585 -0.046662163 0.04832376 0.0047154427 -0.0073946714 -0.048491646 -0.0013372675 0.0064243674 0.040582146 -0.028491307 0.02992693 0.04707769 0.019296374 -0.02128861 0.0058897138 -0.024039662 -0.021533966 0.021139506 -0.0073759444 0.04468124 0.021170083 -0.020327318 -0.02003516 0.018902864 0.030261938 -0.017841388 -0.019321239 -0.009455968 0.008848749 -0.0010274276 -0.020154847 0.034670938 0.03276119 -0.01756706 0.012156345 -0.03357028 0.046985243 -0.020458221 -0.00086908415 -0.012299441 0.026008073 -0.0057558194 -0.030825986 -0.015134908 -0.0074162856 0.03850046 0.011920311 -0.015573394 -0.04782505 0.003132701 -0.032370806 -0.024370087 -0.0445984 0.016347114 -0.007995032 0.016716626 -0.03810674 0.029679645 0.03674512 -0.02576884 -0.01246383 -0.049675655 -0.032439996 -0.04699972 0.018280614 0.03625263 -0.04429809 0.028043482 -0.02341944 -0.01563977 -0.013369251 -0.03403877 -0.014370121 0.009930719 -0.020053996 -0.017838717 0.03264935 -0.049737025 0.031282637 -0.012128223 0.020869624 0.027376626 -0.021443581 0.041253414 -0.01264286 0.04464132 -0.0007424839 -0.041414 -0.045910776 0.04702561 0.035563234 -0.020376373 -0.005823564
2 0.015750635 -0.024131859 0.0065202117 -0.04087565 0.024106156 -0.017570127 -0.007352948 0.008226655 0.04402269 -0.02912283 0.036840443 -0.027835632 0.009578086 -0.007476948 -0.025378896 -0.010478318 -0.0019000992 0.032251213 0.02306581 0.026400376 -0.012544323 -0.013186801 -0.018620826 0.029258754 -0.042557 0.038851406 -0.032930113 0.0055529363 -0.02542088 -0.028145337 -0.006756436 -0.044452082 0.034367513 0.0007225163 -0.023183633 0.038700256 0.0026947856 -0.023367895 0.017445993 -0.045535065 -0.016146231 -0.040670536 0.024813358 0.042112734 0.008551884 -0.036222517 -0.028479612 0.029861595 0.01546916 0.0012383088 -0.012866329 -0.0071060173 0.04806311 -0.043501057 -0.03222369 0.045078266 0.016166735 0.048734967 0.0138253905 0.042076517 -0.02269801 0.008065473 -0.008531034 -0.031352185 0.017188575 0.031188432 0.04389373 -0.016546298 -0.029013729 -0.007301174 -0.012183618 0.034673635 -0.03175906 0.04011916 -0.0041376725 -0.013695002 0.029579248 0.045205895 0.038712826 0.025450025 -0.03618207 -0.0406966 -0.039497424 0.034795534 0.0008584261 0.024133768 0.019845795 0.0030710697 0.0122793205 0.007802855 0.026055422 0.012885917 0.017388713 0.033352364 -0.03165181 -0.03694576 -0.008850336 0.014406566 0.034560833 -0.03169161
speed -0.046133306 0.024665978 -0.04589659 -0.013594806 -0.0005986318 -0.042421687 0.029012743 -0.04155221 -0.04574678 -0.019276572 -0.047058214 0.0070041195 0.011537932 -0.017276026 -0.039008103 0.04847643 -0.019294536 0.019148719 0.033834968 -0.04018742 -0.033613503 -0.044572044 -0.035988558 0.039151143 -0.018780101 0.047010455 0.04694278 -0.014178477 -0.043641973 0.04406244 -0.03102361 0.035034683 0.0120202415 -0.0028349385 0.03227521 -0.042973865 -0.0046413913 0.021442581 0.00012010336 -0.04474015 -0.040029705 0.02615771 0.014861789 0.04195893 -0.034756638 -0.028728342 0.030598547 0.022181321 0.049566302 0.02379987 -0.04575057 0.011793982 0.034978498 -0.023646152 -0.044599593 -0.04996885 0.042782437 -0.035242774 0.02887315 0.041736793 0.048058953 -0.04853474 0.017406013 -0.029271126 0.049853753 0.009424627 0.008518599 0.035111617 0.04764125 -0.03480152 -0.005773008 0.0098338835 -0.013714433 0.006475497 -0.021557486 0.047910217 0.014196996 0.009880401 0.020951498 -0.013521899 0.016795162 -0.0074491873 -0.033696093 -0.032409087 0.03479084 0.017716277 0.0439266 -0.004339386 -0.03765869 0.0012645945 -0.0030122027 0.017623994 -0.01036302 0.048900332 -0.006534159 0.02318554 -0.040892947 0.027141426 0.006768238 -0.034870528
an 0.0077437647 -0.008467089 -0.012314878 -0.021870518 0.025638808 -0.019411623 -0.039842438 0.03353626 -0.0025527477 0.045677412 -0.03658973 0.04277679 0.004531741 0.02414516 0.045395207 0.044382874 -0.0018848665 0.027343694 0.00061674044 0.04043435 0.037222374 0.025619794 -0.044382896 0.013211574 0.043124545 -0.016065322 0.048491452 -0.023662044 0.049864475 -0.041480683 -0.008980334 0.0068042055 0.030468252 0.009503864 0.012198448 0.015682306 -0.020279123 -0.02243768 -0.03893541 0.027558807 0.044800486 0.034749974 -0.013805233 -0.03626312 0.008536659 -0.028760731 0.035832632 -0.041852973 0.02815077 0.04256321 -0.030967033 -0.011293925 -0.0044667497 -0.03289385 -0.047722377 -0.0047289133 0.013741616 -0.047668125 -0.03448665 -0.004949022 0.02585465 -0.047630336 -0.006060064 -0.005862199 -0.005107321 0.006734349 0.028293822 0.009848416 -0.003242515 -0.007260002 -0.00013873726 0.015215937 -0.046475064 -0.0033658966 -0.0053831823 -0.034519315 -0.017109562 -0.019501531 0.012966465 0.03719688 0.0016274452 0.028060887 -0.008809615 -0.037593447 -0.039642967 0.03737894 -0.02354665 -0.018796338 -0.011974525 -0.04293443 -0.025922025 -0.013429355 0.014995288 0.0013981573 -0.030745758 -0.020705093 0.03670832 -0.034831144 -0.045188215 -0.004123211
important -0.011333536 -0.046679486 -0.031669818 0.009770669 0.041842412 -0.010323025 -0.042200636 0.011151183 -0.015140079 -0.019489098 -0.00411899 -0.04861022 -0.012034737 -0.033908475 -0.016251672 0.023641173 0.0202871 -0.0067334548 0.024932612 -0.04586166 -0.04012587 -0.037614215 -0.012478054 -0.0418578 0.002756834 -0.04271667 0.028648328 -0.021183837 -0.029021991 0.029025067 -0.033517316 -0.0010392554 0.02697673 -0.04239856 -0.01952188 -0.04022368 -0.04207722 -0.009911537 0.04462744 -0.007233657 -0.016648483 0.025573041 0.00035843998 -0.0228305 -0.0053376555 -0.030756606 0.0406319 -0.017606903 0.02562869 -0.0038216338 -0.03214866 -0.035284005 0.046203982 0.0305815 0.024294462 -0.021247817 0.0431183 -0.0060061812 -0.017271422 0.029364023 -0.02853328 0.027668152 -0.004252363 -0.008149646 0.004163444 0.0337602 0.01859026 -0.018374585 0.037365746 0.021986853 -0.02967056 -0.041873228 -0.03329142 -0.018742692 0.02480897 0.01129023 -0.02180239 0.016547147 -0.03495393 0.049143005 0.03391471 0.010727644 0.0030502193 0.016294885 -0.011653639 0.029359613 -0.0063171275 -0.0074346066 0.0025766976 -0.028431667 0.03633598 0.0373157 0.008514285 -0.012238227 -0.0062186234 -0.04064405 -0.019835055 0.03591157 -0.0381325 -0.0057583563
point -0.014637031 0.019958679 -0.026917113 -0.045437217 0.015079986 0.048837375 0.036859874 -0.046234097 -0.0134057775 -0.0035364255 0.0026820414 -0.01599567 -0.03227947 -0.0082101 -0.043810405 0.00046676397 -0.018222906 -0.014624536 0.003733255 -0.0027431026 0.022005428 0.0040870905 -0.029955972 -0.017037354 0.03588513 -0.01783092 4.2188913e-05 -0.0126104355 0.010509372 0.040814225 -0.025158083 -0.0040522926 -0.026015162 0.028733168 -0.039115477 -0.015970897 -0.005035173 0.042537842 0.040253688 0.041401494 0.037889052 0.009453855 -0.01815889 0.025810506 -0.0093768835 0.035714578 0.047170315 -0.0058936365 -0.02161907 -0.042693008 0.039245907 -0.025982155 0.0018964037 0.025504563 0.006779231 -0.04840193 0.0030467883 0.012736168 0.038881075 -0.014978707 0.0029176846 -0.008031011 0.023534525 -0.009048067 -0.045935597 -0.009947501 0.039292645 -0.043823898 0.028681051 -0.020533634 0.03950453 -0.04966594 -0.011335384 -0.005666636 0.039987396 0.024134133 -2.6334077e-05 -0.039681576 -0.008267771 -0.03114537 0.02119496 -0.006624222 0.025582697 -0.010345601 0.032267522 0.0009876862 0.02886111 0.0070679896 -0.0024223924 -0.018888414 -0.025482511 -0.013734806 0.029161062 -0.027595008 -0.046833694 0.013665948 0.045673992 -0.002157487 -0.0006135106 -0.009695958
difference -0.045636106 -0.013193678 -0.003358148 0.0019601695 -0.027927542 0.0015515685 -0.013787199 -0.0027425773 0.034905624 0.0054482 0.004765928 -0.031166328 0.031127837 0.010583736 0.0179157 0.044474784 0.013819527 0.011086069 -0.033008505 0.025234487 -0.037165605 0.029337395 -0.007549703 0.009249389 0.033187423 -0.036251415 -0.01855607 -0.0070040934 -0.009468816 0.04904038 0.048062813 0.044011597 0.03145132 0.046960343 0.03111669 0.035793934 -0.028120613 0.031154487 0.007596612 0.016389322 -0.02692839 0.03181466 0.024323989 -0.03131484 -0.040141843 0.0368207 0.0019759908 -0.021655023 -0.016315054 -0.040166784 -0.025607228 0.014337424 -0.038912594 0.02725399 -0.030172992 -0.031237567 -0.0051453225 0.014629308 0.045920145 0.02925856 0.04748979 0.009709239 0.031776298 0.0310799 -0.04162364 0.03227726 0.025683869 0.0053772703 0.014425162 -0.026847815 0.035973202 0.025100473 0.03320587 0.019931946 0.012793805 0.020190503 0.04000253 0.0011633858 0.0026699528 0.008995034 0.03633252 -0.03438263 -0.006351482 -0.0010754466 -0.0415272 0.005155802 -0.02607057 -0.024001706 0.023805033 0.0062804334 0.042086277 0.047124814 -0.015869759 0.023538474 -0.003371857 0.011618674 0.010020543 0.023709822 0.043312375 0.0058939233
two -0.034475982 -0.047400426 -0.023029685 0.017330829 0.047068004 -0.030057443 -0.017956387 0.04981145 -0.043639578 -0.04776324 -0.043935787 0.02889147 0.03666586 0.007131338 -0.029908562 -0.012781154 0.02585398 0.038647566 0.002759017 0.035722326 0.02456763 0.049532603 -0.045010496 -0.044710733 -0.008461773 0.027345147 0.040775847 -0.042451408 0.015892375 -0.006478764 -0.0038875826 -0.034187272 0.0021347776 0.014345732 0.021831188 -0.0013449416 0.016625974 -0.037117112 -0.012845337 0.041402135 0.020411704 0.0011698119 -0.040425193 -0.013246596 -5.0138682e-05 -0.04179486 0.042640116 0.008207656 -6.593764e-06 0.009989608 0.031854633 -0.037707448 0.02194282 -0.015869308 -0.043568064 -0.023428882 -0.011782061 0.0354538 -0.018382847 0.022024248 0.013077509 0.036203388 0.01440585 0.0033700094 0.035599854 -0.038435806 0.027328003 0.009485174 -0.042720225 0.0042251945 4.3880194e-05 -0.027663363 0.030739997 -0.023356069 0.037750516 0.002327431 -0.013507057 -0.0006682277 0.015909795 0.028061334 -0.008997332 -0.042625643 -0.02011609 0.04498205 0.016185846 -0.00059928745 0.012613546 0.021074686 0.021056835 0.03957944 0.039897982 0.048266042 0.03351501 -0.016616214 -0.013962865 0.00025892258 -0.045980014 0.03595457 -0.03686725 0.017984424
has 0.026410673 -0.010902189 0.017664317 0.029032495 -0.028582407 0.017723095 -0.007011652 0.016575266 0.027724419 0.0016174093 0.010579683 0.0028292052 0.046775166 -0.005498767 0.043014217 0.042293135 0.023515116 -0.049196422 0.040032256 -0.03433623 0.02687813 -0.019639242 0.018919561 -0.028078342 -0.026120936 -0.02466054 -0.04407945 -0.020955479 -0.037298847 0.01984651 0.0072416663 -0.049797155 0.0029138215 -0.026623322 -0.00804013 -0.026880993 0.04536878 0.008148562 0.04398432 0.026231717 0.017004836 -0.00032621622 -0.023839558 -0.04239012 -0.04240961 -0.026096571 0.01646955 -0.008209061 0.0017326958 0.023506675 -0.044497143 -0.029165817 -0.042531576 0.02585623 0.047969747 0.008015953 -0.010456227 0.04780649 -0.0073386207 -0.013594162 0.042558562 0.029346135 -0.016342055 0.010520339 -0.030791735 -0.007688403 -0.04502486 -0.02589867 -0.04287367 -0.010136209 -0.0055310614 0.00857221 -0.015542187 0.031330798 -0.030609965 -0.031671453 -1.6022474e-05 -0.011283696 -0.031131173 -0.013488483 0.026036251 0.021626558 0.007285595 0.014994469 0.025117446 -0.019224359 -0.010363232 0.042188894 -0.005492259 0.015525971 0.029245164 -0.00071156025 0.03118148 0.025101077 -0.035588253 0.0058390982 0.03230304 0.02443638 0.012346484 0.0128888
median -0.014552392 0.042993974 0.019672718 -0.03612585 -0.040026117 0.032709923 0.004609525 -0.028961135 0.04500464 0.047242526 0.019887876 -0.0017900951 0.016565192 0.0023794062 -0.02355336 -0.00095415115 0.03540964 0.0023968704 -0.01441133 -0.016382359 0.01569042 0.008202314 -0.020186877 0.044889066 -0.03826306 -0.03431225 0.0028952733 0.032856736 -0.026223218 -0.010591079 -0.023922622 0.014978681 0.0075052865 0.022418533 -0.040433217 -0.005043246 0.018873896 -0.018034302 0.03687339 0.041364815 0.038491216 0.015395608 -0.039435588 0.011205137 0.009635232 0.044762943 -0.027955044 0.00790111 0.021439884 0.039790656 -0.033456683 -0.03529241 -0.020254994 -0.046540666 -0.0044691935 0.027291063 -0.01757139 0.03420272 -0.04869553 0.03001232 -0.0041701794 -0.016766917 -0.0053862557 -0.018544197 -0.030978275 -0.018669508 -0.011730909 0.010800589 0.04115406 0.0059500113 -0.033615053 -0.03780067 0.00081349537 0.032990683 -0.04571717 0.011253644 -0.01837679 0.0363088 0.04278351 -0.006239604 -0.017041337 -0.016979933 0.03039148 -0.04201839 -0.036838137 0.021636594 -0.0478575 0.026940968 -0.024477243 0.02737223 0.019208554 -0.02055869 -0.0218899 0.020568792 0.03301928 -0.02900138 -0.025164211 -0.037511326 -0.0012994409 -0.02679851
incubation -0.04105451 0.043062914 -0.02358885 -0.043107916 0.03695846 0.0048022494 -0.03907726 -0.028150856 0.03333156 -0.024983991 0.0032465458 -0.027486777 0.013901796 0.04982697 -0.023294557 -0.02388531 0.008134566 -0.031049347 0.0047634616 -0.041723084 -0.014932763 -0.011914622 -0.026616609 0.0002215989 -0.04561999 0.034637045 0.025293183 0.01249367 -0.040955067 0.018466923 0.0068811066 -0.023259545 0.044443216 -0.048216965 -0.030030835 -0.013201214 0.003617119 0.027495038 0.04899389 0.0011437647 0.025866989 -0.035764564 -0.048277806 0.01184665 -0.04083364 -0.02073598 -0.02576877 0.02618501 0.02480923 0.032963995 0.025001813 -0.009049453 0.031040076 0.021114063 -0.002694346 0.0378518 0.02736355 -0.03679117 0.015304301 -0.024875378 0.038363505 0.015185107 -0.028087711 -0.009042777 -0.029176129 0.044811 0.026455048 0.04186887 -0.039567627 -0.0117849 0.029473815 0.0010844581 -0.03914223 0.028659154 0.037702825 -0.032449506 0.032310095 -0.0017042644 0.0056752935 -0.041748464 0.041627016 0.0140944235 0.0093382 0.01640192 -0.005025696 0.033507157 0.01285008 0.019971106 0.004905604 -0.04478983 0.031137515 -0.048906256 0.03589609 -0.033723403 0.010697626 -0.03706794 -0.017837308 -0.043955088 0.038564872 -0.02513287
period 0.02573837 0.04403669 -0.03261912 -0.04727478 -0.022727465 0.042040598 0.019896004 0.046465907 -0.03456961 -0.010026075 0.037659656 0.0021306984 0.030696604 0.029638086 0.046457123 0.045522604 0.0006182082 0.021471452 0.0055667534 -0.021640528 -0.015619826 0.04297589 0.033475686 -0.044807125 -0.021722067 -0.010187887 -0.00049322844 0.013279807 0.029490415 -0.009925198 0.0392215 -0.009352852 0.022701655 -0.03843237 0.03288534 -0.036916304 -0.029507076 0.022662524 0.039211143 -0.004797794 -0.0094274655 -0.018849373 0.007371366 -0.025806868 -0.038917996 0.0065916292 -0.035990167 0.0005315654 0.014673058 0.047648456 0.0045285597 -0.03169017 0.023507427 -0.020195736 0.04761367 0.0071843266 0.035299804 -0.039623834 -0.019485235 0.0152547695 -0.034481786 -0.028247548 -0.039385654 -0.04851767 0.015675154 0.024453174 -0.025848377 0.047263984 0.021110725 -0.03748994 -0.002057124 -0.003349267 0.025285628 0.0030099042 0.0013099685 -0.036254335 -0.033928253 0.00447483 0.04556031 0.03122561 -0.00069242716 0.007092677 0.042226125 -0.02510556 -0.041868508 -0.008695088 0.04521812 0.008819997 0.047426272 0.020035718 0.00807165 0.04963136 -0.009993039 0.03978889 -0.022538245 0.046232615 0.013591457 0.010381162 -0.040424038 -0.004930306
infection -0.03162519 -0.014350116 0.011964608 -0.032638624 0.020738829 -0.01854106 -0.034908034 -0.029230857 0.048238244 0.023158994 0.0056965947 -0.029315425 -0.0421275 -0.0011009462 0.03356773 0.02140275 -0.041353833 -0.008480884 0.0027058125 -0.016123772 0.010142945 0.030976985 -0.037973143 0.04179323 -0.00096359104 -0.03036095 -0.03867768 0.04231837 0.0010961667 0.02527995 0.037928294 -0.011891566 0.03439864 0.024519455 0.036460582 -0.047147166 0.03001168 0.02058364 0.047327768 0.016948666 -0.029286861 -0.014776707 0.041004624 0.04433986 0.042830195 0.008941449 0.032300282 -0.015016485 0.03316844 -0.013660181 -0.03734665 0.04062939 -0.02346759 0.01666144 0.02817073 -0.015793491 0.04634941 -0.008816101 0.041733075 -0.028552925 -0.0026252382 0.049979616 -0.040491104 -0.013128065 -0.03752414 0.04115362 -0.021992683 0.0041496977 -0.043783344 0.030815277 0.027781282 -0.0327546 -0.04376432 -0.0025741942 -0.014789857 -0.0426448 0.04336864 0.008098949 0.012339212 -0.020363951 0.006888319 0.032768402 -0.022533476 -0.04241401 0.03174207 -0.034628797 0.029562365 0.018193457 0.011409055 0.043742087 -0.024142956 0.003558375 0.042761255 0.025888134 0.007952154 0.048751783 -0.0043023825 -0.0046979785 -0.0047671087 0.038802933
successive 0.03313719 -0.0035936236 0.04500917 -0.011477195 0.009518813 -0.02447083 -0.009896241 -0.04465896 -0.0351982 -0.026166499 0.04425377 0.00028169155 -0.048441507 -0.043088507 0.018510763 0.038474094 -0.0049279444 0.0261438 -0.024037993 0.0114945285 -0.032305792 0.047611658 -0.044492185 -0.022079064 0.032092784 0.0069082268 0.012609232 -0.040748395 -0.010509752 -0.013871204 0.0069968924 0.034064535 0.007973932 0.043666054 0.04658517 0.01146277 0.0019727834 0.012712564 0.015622463 0.012883116 -0.04782939 0.038636748 -0.012192678 -0.04913626 -0.01429509 -0.028035177 0.019639675 -0.01014366 0.040789638 0.004309226 -0.035976507 0.030337188 -0.02433591 -0.048508238 0.00076474994 -0.04138595 -0.026015317 -0.02888881 -0.040694725 0.020627271 -0.0323207 0.0022050627 -0.0011711344 -0.038077403 -0.04566255 0.0032318346 0.0032440312 -0.028995443 -0.005272843 -0.026523758 -0.01853478 0.02388927 0.048375074 0.0010747202 0.023425963 0.049761903 -0.021158708 0.024859618 -0.026434755 -0.014919557 -0.039595343 -0.04431614 -0.029243624 0.019630816 0.042242836 -0.026823832 -0.0041732304 0.021089528 0.009911634 -0.045612622 -0.03776505 -0.0020654574 0.049197745 0.018520106 -0.036962975 0.019846786 0.025572505 0.0028387532 -0.03412261 0.031436834
cases -0.025979448 0.003972817 0.032398734 0.032859955 0.015981141 -0.021092117 -0.036902953 -0.048309624 -0.002205275 -0.047688868 0.015489172 0.0060019717 0.010802768 -0.047458496 -0.016221713 0.030739788 0.0025912523 0.0028348565 -0.029653812 -0.03265766 0.046833206 0.00984646 0.0110992305 -0.035550177 -0.009260617 0.036825705 -0.039824676 0.04425936 0.004111767 -0.04901273 0.0019438975 0.030405406 -0.045167338 0.020069633 0.0020938888 -0.041785408 -0.011757553 -0.041454315 0.04167411 0.039464418 -0.042265642 -0.040968396 -0.0110264905 -0.034359775 -0.017848324 -0.028739108 -0.008564137 0.030785572 -0.030799365 0.0125487335 -0.019156694 -0.0350358 0.0016905181 -0.01710751 0.023028973 -0.021252919 -0.00062385947 0.033415984 0.03571259 0.008001495 0.018950071 -0.036527395 0.027215008 -0.024737049 0.000528384 0.038480703 -0.011925958 -0.049925484 0.028296854 -0.048063315 -0.017525293 0.008788038 -0.0038238764 0.02355044 -0.02900399 -0.0485618 0.023898635 -0.0034069195 -0.03094225 0.03941107 -0.023653556 0.006197285 0.037639286 0.009854935 0.002029419 0.0021575093 0.011880349 -0.018890787 0.008733213 0.0005565882 -0.032882176 0.0152598955 0.03840718 0.02839974 -0.027865946 0.032955755 0.02641226 0.039762642 0.01394112 0.033015918
estimated -0.002372492 -0.03352578 -0.016946696 0.028886188 0.049467754 -0.026097132 0.04137254 -0.037194394 -0.00700916 -0.018269468 0.034040574 -0.0156039 0.024257112 -0.036700975 -0.017771434 0.037653837 0.014010217 -0.03233838 0.0005201921 0.030285899 -0.03568866 -0.037104942 0.038656544 -0.04116415 -0.00565809 -0.014079105 -0.047127604 0.04965749 -0.033263672 0.009436835 -0.038374424 0.027927209 -0.041801084 -0.011734713 -0.025231946 0.008093189 0.04772431 -0.0036963597 0.013713423 0.012741338 -0.04386101 -0.037862636 0.03473914 0.002914656 -0.005702831 -0.037948202 -0.023372317 0.009572197 -0.013763048 0.040438715 -0.0010435805 0.048416827 0.0127852 -0.035506118 -0.020998968 0.020033147 0.041396428 -0.03987355 0.027637493 -0.011608422 0.049193967 0.036235582 -0.043984998 0.041721012 -0.022560453 0.02458204 0.0037694462 -0.049146127 -0.021720482 -0.020051135 0.048028085 0.024962787 0.047468398 0.019211378 -0.029918982 0.02150825 0.030705404 -0.022010744 -0.020876765 -0.0042600147 -0.02819835 -0.025518943 0.037729394 -0.03909694 -0.015054919 -0.034111343 0.027832221 0.02141099 0.024781715 0.018175934 -0.0006173849 0.03269816 0.03108308 0.00037195534 0.045814488 -0.0021656752 0.030572895 -0.0015361421 -0.011710383 -0.040544175
6 -0.036138844 -0.016226612 -0.0097031705 0.027733888 0.010288201 -0.03330978 0.015782941 0.041599344 -0.048891366 0.024684083 0.003859602 0.049808476 -0.0406263 -0.04185488 -0.011821914 0.0049669147 -0.029979182 0.032257248 -0.010885857 0.01781274 -0.019766415 -0.009253345 0.040340636 -0.0012468472 0.014732983 -0.005905319 -0.0011516437 -0.03570565 0.013861608 0.03088132 -0.009883605 0.037388828 0.015372012 0.03866047 -0.03269974 0.039470624 -0.024497354 0.023099545 -0.003634978 0.028453026 0.04258335 -0.00458635 0.0028030165 0.041717444 -0.012621857 -0.04972117 0.011748064 0.04579426 -0.01045078 0.041916814 0.024097215 -0.041879643 -0.04904405 -0.013532914 -0.019038845 0.030035269 -0.032573007 -0.003401816 -0.013839923 0.022894766 0.021786597 -0.029500235 -0.023786593 0.013267543 0.02395637 0.0053092837 -0.036331855 -0.029084696 0.021209273 -0.037136544 0.0132086165 -0.021072948 -0.03119123 0.04450201 -0.0048393384 0.01480769 0.008535445 0.005968474 0.039993677 -0.045376778 -0.041299105 -0.010294892 0.04358295 0.046405915 -0.038974714 -0.03579254 0.026072595 -0.0011979826 0.0029171333 0.045583498 -0.04604968 0.014413189 -0.03642576 0.04619087 0.017586138 0.025459994 -0.020259356 -0.035009027 -0.037743736 -0.03670063
means 0.031179313 -0.003227137 -0.021933222 0.02073947 -0.018945742 -0.0028955117 -0.03870337 -0.047599066 -0.019416189 0.02032851 0.041528378 0.02789009 -0.007428538 0.028626416 -0.041729473 0.030194525 0.0144995935 0.039629962 0.033165995 0.025604855 -0.011724748 0.035392273 -0.020693839 0.014574256 0.0051208623 -0.000492502 0.017839525 0.049292687 0.009748198 0.034650173 -0.03808732 0.049472723 0.03589258 0.04992714 -0.036381472 -0.03139677 -0.039204776 -0.00904708 0.009037543 0.024586264 0.017296921 -0.028636659 -0.03315004 -0.024504006 -0.039186347 -0.0025110021 0.0018701069 0.01869652 0.01663157 -0.007783912 0.0024494417 0.04792502 0.008245252 0.012085736 -0.0008101836 0.04841766 0.039437566 -0.041564155 -0.045928266 -0.027573084 0.039743807 -0.043903854 0.020629097 -0.03682127 0.003188502 -0.04854938 0.0057942495 -0.0057247654 0.008912802 0.017147351 0.0010852218 0.022018004 0.04109091 0.043451417 -0.0005829558 0.032493185 0.03607369 -0.025812566 -0.005405735 0.029812705 -0.0068819635 0.01057408 -0.03513075 0.04387014 -0.035535574 -0.015658963 0.0044451132 0.047166076 -0.013681125 0.028410327 -0.026925588 -0.02074554 0.048886944 0.008162357 -0.0259498 0.008826185 -0.03162526 -0.014022458 0.0055888407 0.003264904
spread -0.0036600828 -0.027356137 0.049559046 0.043156374 0.020563725 -0.01941209 0.0075052753 -0.0044699535 0.04321574 0.04757866 -0.045995425 0.03755713 0.0426373 0.028173182 -0.015186109 -0.01916561 -0.04272989 -0.0035473108 0.042299893 -0.022297144 0.046000306 0.003017284 -0.03025998 0.0034930594 0.04162151 -0.0058229454 -0.028868604 -0.008984506 0.030950394 0.033460226 -0.043973375 -0.027884198 0.030782703 0.00046541542 -0.03934878 -0.0071795955 0.014618706 -0.03227674 0.011665415 -0.049979676 0.041267347 0.04240649 -0.029287053 -0.02244668 -0.016682066 0.042824354 -0.029875709 -0.008495498 -0.010518562 -0.009963583 -0.040193927 -0.011301078 -0.021696484 -0.023450995 -0.0019650087 -0.0305277 0.024321925 0.038175415 0.02998421 -0.007060718 -0.03456781 -0.007951926 -0.0036361925 0.014508095 0.026609186 -0.015926994 0.007960103 -0.028506888 -0.049280968 -0.009852968 0.0052456856 0.026225653 -0.009564459 -0.041207064 -0.033959746 -0.027544796 0.04020867 -0.029183006 0.039591465 0.036081467 0.023184989 -0.015045784 0.03280058 -0.031283334 0.03942791 0.04335693 0.00146259 0.0061050877 -0.037382603 -0.017072976 0.033327345 0.042686667 -0.016923357 -0.0057944767 -0.037745714 0.021991264 0.028308246 0.04955915 0.024652984 -0.024907982
faster -0.0129547715 -0.034695458 0.006756164 -0.005282391 -0.0040763244 0.028412078 -0.039356362 -0.04064982 -0.012877107 0.023887921 -0.0077241436 0.026712667 0.02643678 0.005891241 -0.035595406 0.04079484 -0.031279244 0.042896364 -0.043917455 -0.0495855 0.012435209 -0.024327552 -0.025202382 0.0077808127 0.010151543 -0.013256978 -0.010348178 0.0027996078 0.023244467 0.01178788 -0.03869897 0.046489585 0.014253747 0.018527236 0.02858046 0.0062251575 0.0063224547 -0.047654856 0.03395844 0.034298014 0.024425495 0.0048198476 0.021652762 -0.042183377 0.042210605 -0.024110878 0.029444192 -0.016034078 -0.024166321 0.012410928 -0.014378607 0.037503634 0.010966133 -0.029856516 -0.029082775 -0.031784534 -0.034038354 0.035711195 0.039736543 -0.040977478 0.012782488 -0.007764004 0.03986479 -0.008968689 -0.04894073 0.012830172 -0.039910913 0.020759728 -0.032481946 -0.01174302 0.0002882965 -0.006953586 -0.045740545 0.038787615 0.04050279 0.00798092 -0.008848153 -0.013080955 -0.031008959 0.040116858 -0.007249713 -0.04318068 0.035360646 0.0072878115 -0.034198917 0.0056985132 -0.0016184226 0.0075120702 -0.04049889 -0.043123435 0.015243236 -0.011949588 0.048534658 0.042805064 -0.046435393 0.03556328 -0.02798909 -0.028127337 -0.0015575886 -0.046711374
further -0.037924517 0.030006256 -0.045481633 -0.039448332 -0.006528996 0.004628349 0.04650264 0.022829797 -0.025633562 0.01017455 -0.04137255 -0.046027567 0.032451484 0.033063438 0.04881486 0.03750808 -0.01784693 -0.024288107 0.023044791 -0.020966483 -0.021343028 0.03008617 0.010136031 -0.0029211156 -0.038416944 -0.033874236 -0.018426478 -0.011589967 -0.026500499 0.0053344145 0.036797073 0.013166223 0.043744694 -0.04267738 0.017848682 0.02176055 -0.012104332 -0.0086959 0.021011319 0.035860706 -0.02589283 -0.0004521124 0.03277422 -0.0025505535 0.049822103 -0.027700795 0.02276602 -0.04618459 -0.04249941 0.001142513 -0.037705265 0.007905304 0.016485963 -0.04191004 -0.012608599 0.047055732 0.013387594 0.003991235 0.0061145537 -0.012842286 -0.04432565 -0.027995039 -0.0062483773 0.030891385 0.043815766 0.036802795 -0.008584786 0.019275788 0.007625986 -0.040096916 0.030907761 0.023779187 -0.015056156 0.04849397 0.026528362 -0.037322722 -0.030380607 0.005084932 0.0025098696 0.003523577 -0.048496164 -0.0009502657 -0.0263592 -0.020632362 0.011091363 -0.023239672 0.033438813 -0.037327982 -0.017102052 0.039631616 0.024574984 0.021528985 0.031118486 -0.04849217 0.041861724 0.025242519 0.01987337 -0.01611147 -0.0349905 0.038852427
first -0.04324962 0.026789118 0.010916851 0.026816461 -0.033465743 0.013399351 0.035771895 -0.0033150092 0.02272648 -0.017557204 0.04558554 -0.016838811 -0.04423244 0.043021213 0.042950224 0.0099831335 0.034107957 -0.013693441 -0.016319193 -0.026523102 0.022301663 -0.046324123 -0.042580225 0.043297436 0.019875932 -0.022709345 0.023049008 0.031087104 0.043441903 0.035321083 0.047775615 -0.012290396 -0.015597463 0.022160653 -0.009404205 -0.032644525 -0.035985135 -0.0024366975 0.028782967 -0.0037659407 -0.034314647 -0.038860094 -0.03167238 0.0004892461 0.012887146 -0.038167 0.04085589 0.036005843 0.024464045 -0.013301384 0.027500298 0.011781942 -0.013431586 -0.044262886 0.024655234 0.039697196 -0.006207943 -0.029635776 0.02737904 0.045747865 0.03416923 0.020381879 0.01631638 -0.04682746 -0.028643072 -0.029445255 -0.036878027 -0.047210183 0.031758342 0.025840644 -0.0053272024 -0.036249958 0.049413923 0.013522994 0.0018034205 0.0024689324 -0.0073712356 -0.032278255 0.017883424 -0.041633796 0.011899509 -4.991889e-07 0.015767489 0.004582785 -0.0052675493 -0.01224748 0.04153699 -0.042507827 0.041728202 -0.03879925 0.04928794 -0.0032633767 -0.04604305 0.007165909 0.02522732 -0.014688741 -0.0013277046 0.028717939 -0.022288954 0.038139913
illness -0.043784656 0.008222066 -0.0021967888 0.018528115 0.01050856 -0.025867213 -0.017934263 0.035087798 0.044810984 -0.04643587 0.03026912 -0.03223767 0.021147761 -0.014965773 -0.019707406 -0.03692174 0.023231115 0.0042124987 0.031283382 -0.008062482 0.00036346912 0.022338305 0.028694574 0.033487115 -0.02193786 -0.025204552 0.037514243 -0.024792695 -0.032478273 0.031720947 -0.01929747 0.0047984943 0.017260399 -0.030172694 -0.0041983724 0.0221037 -0.03245765 0.01744229 -0.043576956 -0.0021546483 -0.017315865 8.978695e-05 0.012921188 -0.04779848 -0.022346735 -0.004758764 0.017792117 -0.013044059 0.002674926 0.021254573 0.00092414767 -0.026818156 0.013881039 0.030580077 -0.038797904 -0.023544395 -0.019118011 -0.022448504 0.046604898 0.0063350312 -0.01966989 -0.027618779 0.003360998 0.024758365 0.0009811744 0.04850537 0.042746436 -0.025863087 0.034548964 0.025656592 0.022521224 -0.004163228 -0.029458523 -0.04574504 -0.018266402 0.031114291 0.031054262 -0.0057581663 0.047581438 0.019268606 -0.04942019 0.031995047 -0.011885524 0.024012912 0.03263468 -0.012630321 -0.036177434 0.034187984 -0.045748092 0.010908745 0.002097547 0.026466895 0.040313575 -0.028244471 -0.011678137 -0.03827996 -0.008532833 -0.039531887 0.045562435 0.04357649
or -0.010166895 -0.034486867 -0.03549565 0.010592878 0.026302341 0.036597017 0.03138921 0.037684236 0.044482615 -0.042827155 0.030075837 -0.04391105 -0.049525417 0.010337282 -0.0071815476 0.038679805 -0.047242235 -0.03419844 0.042706344 -0.019256616 -0.0032671578 -0.015783153 -0.037034392 0.010016192 0.023653392 0.037577096 0.026223186 -0.0022892244 0.03448457 0.0023293868 0.018676724 0.009383392 0.041346464 0.038545538 -0.032889057 -0.020097006 0.00745536 -0.0408517 0.04105239 0.030633677 -0.013931394 -0.016727448 -0.042960297 0.0072677024 -0.01954695 -0.036895335 -0.03597785 0.040809166 -0.02105701 -0.046644177 0.014565576 -0.0068048723 -0.030536115 -0.04496112 -0.021216715 0.00387498 0.018399503 0.047356848 0.037181724 0.01881763 -0.008342456 0.009765111 -0.027597403 0.045319173 0.024449456 0.037605237 0.024056915 0.024907175 -0.010372877 0.023321483 0.02863231 -0.00474428 0.03547353 0.025332179 0.0034444556 -0.030806279 -0.038366996 -0.04419768 -0.0061250813 -0.011248849 0.01975796 0.04821446 -0.0007246621 0.023430321 0.02923416 0.016019586 -0.03628671 0.0061324015 0.028666664 0.006634034 -0.04882623 0.028047595 0.046825852 0.025374856 0.035548758 -0.030721843 0.047810186 -0.038852334 0.00777613 -0.035354696
potentially 0.016056169 -0.028320218 -0.04468414 -0.004025124 0.038867068 0.006331075 0.041946676 -0.0079265945 -0.035600603 0.036042366 -0.0042724386 -0.0055487044 -0.029081583 -0.038459074 0.005867541 0.012608442 -0.012057841 0.033102658 0.04761404 0.04394411 0.009182323 -0.04789866 -0.047384657 0.012270164 -0.047495306 0.037531663 -0.046295583 -0.035255276 -0.02421453 -0.00087883323 0.026564505 0.02249888 0.04828329 -0.014648784 -0.030850017 0.041883375 -0.013705432 -0.043920826 0.04260466 -0.018059254 0.004089989 -0.036674894 0.008627929 -0.03952211 0.04830051 0.045293245 -0.04630624 -0.013090599 0.03475796 -0.044940818 0.0101303235 0.024282608 0.023182157 0.020931948 0.016221229 -0.035630394 0.042908583 -0.04535527 0.009183336 -0.036794804 -0.00966046 0.031980004 0.04190466 -0.03363657 -0.006014537 0.0044097677 -0.02692597 -0.009043492 -0.01701001 -0.018929875 0.0047660843 0.0036220439 -0.036255516 -0.01962514 0.0439785 0.018441167 -0.041634344 -0.015976 0.017326783 0.033871267 -0.0076974034 0.035036948 -0.032950986 -0.03844607 -0.03471346 0.008844696 -0.0034831762 0.032792237 -0.0021308064 0.00847169 0.010299481 0.036260378 0.039871763 -0.034971405 -0.02064141 -0.03857726 -0.02465042 -0.010054015 0.038604084 -0.005225919
pre 0.026427124 0.032843675 0.04324806 0.003762234 0.007640101 0.04320463 -0.038401294 0.034094635 0.009721529 -0.036321353 0.016431961 0.005241655 -0.015485596 -0.03409578 0.0200915 -0.021732867 -0.04859804 0.04984125 -0.030410184 0.0432464 -0.009250272 -0.02840507 -0.012980115 0.038731385 -0.03997121 0.04213604 -0.044309426 -0.007449843 0.015507985 0.008532941 0.011949338 0.009117521 0.0077342615 0.0031413324 -0.045545675 -0.0024378523 0.0024625063 -0.016115047 0.037394848 0.047671977 0.032914173 0.040781748 -0.038610242 -0.048703577 -0.0106472 0.022300337 0.01205964 -0.0011588447 0.048966173 -0.03420775 0.046355013 0.019621883 0.022602867 0.01482581 -0.0021883845 -0.012173437 -0.04543371 -0.0059049614 0.03870162 -0.04370589 -0.045943763 -0.0086144805 -0.024978673 0.036475312 -0.034047604 0.012140177 0.025848296 -0.035827197 0.048413303 0.04697242 -0.015802048 0.031125177 0.037873995 -0.0063244924 0.009796262 0.015608322 -0.0054867864 -0.021073723 0.004738141 -0.026220692 -0.030747486 0.0048537254 -0.030354667 -0.041190587 -0.03274244 -0.04742656 -0.022116542 0.035769414 0.026784573 -0.0026918054 0.036792327 -0.042992808 0.0024212822 -0.020409334 -0.025528193 0.008497786 0.043034162 -0.004166793 0.006613504 -0.03165685
symptomatic -0.03018769 0.04671364 -0.007986259 0.02528007 -0.027745044 0.037976135 0.01960111 -0.027631044 0.03061812 0.021191504 0.010555614 -0.022997892 0.01402564 0.036722135 -0.026870226 -0.02395519 0.042994093 -0.012952853 0.035085443 0.0037157312 -0.005998958 0.039685417 -0.034573413 0.046554152 0.024461541 -0.046499252 0.026038002 0.021083903 -0.013388921 0.020703983 0.0064316504 -0.017360974 0.02310976 0.044431377 0.03400724 -0.01907673 0.019190643 0.020222548 -0.04603988 -0.048553754 -0.036498856 0.04015665 -0.0038180575 -0.0030150637 -0.021416677 -0.013306178 0.047103856 -0.030286802 -0.00559156 -0.009281896 -0.044024803 0.046365272 -0.041509975 -0.03641236 -0.0416438 -0.03979516 0.030030224 -0.028154874 -0.02942661 -0.0032033212 0.039180364 0.012229085 -0.034263123 0.039033916 -0.007962991 0.00030551106 0.0041206703 0.043088306 0.00087244436 -0.017145444 -0.015058566 -0.04692476 0.0040028207 -0.024331046 -0.0019650087 0.018350217 -0.021305168 0.023093615 -0.003943514 0.047076892 0.01658753 0.03843013 -0.005609095 0.040419865 0.04691727 -0.040079974 0.030277204 -0.024121333 -0.004739236 -0.02983941 -0.048634853 0.049136367 0.019009862 -0.041384816 0.0016641021 0.029822957 0.044559073 0.048122887 0.01762015 -0.029891813
–transmission -0.012699854 0.013925161 0.02319565 -0.030932283 -0.014128935 -0.046211828 0.0077654608 -0.00080794096 0.018010203 0.004185248 -0.0010533705 0.026335347 -0.027815653 0.012931529 0.010311805 0.034572627 0.040615868 0.03666309 -0.0090595 0.010019947 0.021369245 -0.044106543 0.0003271699 -0.046037614 0.034493778 -0.027892375 -0.007403385 -0.0057557 0.0052371845 0.0048331246 -0.03804364 -0.009251989 -0.022813534 -0.028858626 0.02485397 0.032799605 0.047239635 0.013969693 0.045523975 -0.02436669 0.008779071 -0.005591858 0.006765224 0.022460971 -0.03499334 -0.01946807 -0.03858478 -0.030001879 0.025036428 0.03313159 -0.016189288 0.0076451674 -0.011617113 -0.002320014 0.032510612 0.014510382 -0.034256577 0.04690956 0.0034137852 0.03573929 0.044430103 0.0024537556 -0.027354622 0.045991722 -0.0279217 -0.012206636 -0.024270082 0.03438722 0.0015306957 -0.026125241 -0.02850691 -0.027113056 -0.019671334 -0.03555938 0.042535033 0.04150189 0.015562538 0.035722066 0.0214427 -0.0225909 0.047655273 -0.004519783 -0.004979145 0.0038060434 -0.03400557 0.049892236 -0.015718509 -0.015632391 0.0128174685 -0.024376953 0.021566216 -0.008798491 -0.0002983585 -0.035747755 -0.03627243 -0.022527946 0.0030879974 -0.010128368 0.0056144595 -0.03807311
before 0.014678445 0.0061805137 0.015464935 -0.03943907 -0.015849423 -0.012735389 0.03150132 -0.03321465 -0.048815478 0.007894885 -0.03183706 0.0015731566 -0.0026009455 0.0068405643 0.027783837 -0.03794383 0.035988938 -0.037626587 0.00013246387 -0.023698295 0.035760466 0.037598457 0.025858115 -0.028195573 7.022545e-05 -0.0047008023 -0.038348116 -0.0058171377 0.036460374 0.045016598 -0.030884206 0.0007679686 -0.034041572 0.008419298 0.042936873 0.046333227 -0.040142335 -0.02395822 -0.016671978 -0.020265842 0.022563312 0.03405657 0.035876837 -0.014704548 -0.048797715 -0.045381736 -0.031957842 0.0047496334 0.028055701 0.030007843 -0.032920144 0.0449077 -0.01290964 0.044888165 -0.0019608028 0.0133433975 -0.04550879 -0.004621852 0.014914598 0.04108051 0.025925782 0.016679775 0.013847496 -0.044294454 -0.025562573 -0.0040198676 -0.032263316 0.030923318 -0.035041906 0.010626078 -0.03648292 -0.021870852 0.036385704 0.007092856 0.007931303 0.031662885 0.020911228 0.015261475 -0.044824254 0.010521866 -0.007463943 0.04925475 -0.035493277 0.037387166 -0.014114451 0.009183325 0.037718024 -0.041281927 -0.011955213 -0.03273394 0.025251735 0.005371701 0.042665813 0.024276268 0.01975498 -0.019151175 -0.016340613 0.030614171 -0.04598992 0.016402889
contrast 0.019278813 -0.04010701 -0.004840266 -0.03321769 0.021727894 0.022744846 -0.038145363 0.019762326 -0.040822458 0.037127007 -0.027275039 -0.042662382 0.027883459 0.013336431 -0.040751137 0.023881678 -0.043053556 0.041487265 -0.03585253 0.042093728 0.012882378 -0.043043543 -0.022431005 0.004648052 -0.011647902 0.020979334 0.027779173 0.02265438 -0.040909924 0.028581392 0.03425843 -0.015377007 0.046636764 -0.0143103 -0.00097191334 0.0078745 0.014662687 -0.02902857 0.0185966 -0.026766969 -0.018786086 -0.039190114 0.017843198 -0.0392264 -0.019445026 -0.012864243 -0.036670648 0.010790538 -0.010591209 -0.034277216 -0.007921495 0.038852606 -0.02965473 0.04078534 0.04099149 -0.02470082 0.03825817 0.016456556 -0.015922975 -0.024572337 0.01162976 -0.034882594 0.0019868128 0.017507363 0.023423124 0.046690073 -0.04713353 0.015337292 -0.025846636 -0.00029075146 0.04175694 0.006930709 -0.013461102 -0.015485801 -0.030299295 0.035167586 0.029908802 -0.0062239543 -0.011737574 0.03928368 -0.043504383 0.009888709 -0.043715466 0.032439258 -0.012627829 0.03081948 0.032975625 -0.0040677898 0.027466226 0.025341455 0.014604393 -0.016386915 0.048526492 -0.033656873 0.03209534 0.04245695 0.01865575 0.041202012 0.025032673 0.012201894
we 0.04465026 -0.040079318 0.01665746 0.029632296 0.00025988743 -0.023039842 0.042823706 0.01997396 -0.027888179 0.0057035573 -0.0030106194 0.049155306 -0.04056686 -0.041229926 -0.019298613 0.020649027 0.0029867515 0.042682264 0.009363901 -0.042768396 -0.024211694 -0.039912187 -0.034724724 -0.045044612 0.033210028 -0.039536417 -0.0443478 -0.042883445 0.025015745 -0.031234479 0.03883555 -0.021031905 -0.04304072 -0.008897044 0.04320881 0.04459281 -0.03805989 0.013185743 -0.02630688 -0.011551477 0.043226924 0.02398784 0.04293629 -0.029527081 0.03705922 0.031667914 -0.020508636 0.02658477 0.047361005 0.0387499 -0.035847604 0.026101533 -0.045129813 -0.031974006 0.022621516 -0.008860648 0.014611926 0.015368525 -0.013772108 0.00862075 -0.0236629 0.012205709 0.011582099 0.042199526 -0.021240175 -0.041967295 -0.04009949 -0.011340715 -0.008067884 -0.017908406 -0.009803057 -0.047336172 -0.0039306507 -0.025697792 -0.0065602288 0.017700199 0.006671261 -0.0041202307 -0.030264271 -0.016327452 -0.008182146 -0.013430677 0.012351643 0.029062118 -0.030261612 -0.013266943 0.021977354 -0.044202007 0.042134855 -0.0370538 0.0002037771 0.02866919 0.011814855 -0.021080697 -0.012858022 -0.0004316084 -0.037489913 -0.010688126 -0.013098858 -0.025609076
learning 0.043692593 0.015929643 0.00947354 -0.021382952 -0.03476863 0.048591528 -0.044264413 -0.027740931 -0.031696357 -0.0048121326 -0.01088164 -0.0239501 -0.04119445 0.024959255 0.02825569 -0.0066871867 -0.026640927 0.011034928 0.0089793205 -0.00057349354 -0.00026682764 0.036249135 0.018133726 0.01743729 -0.004493702 0.023640577 0.0071604624 0.0489184 0.025769737 0.029066432 -0.009160686 0.006036103 -0.0075721145 0.01210586 -0.0005012974 0.021766972 0.037582982 -0.047612846 0.029400181 -0.044299245 -0.034686506 -0.008909393 0.04539596 -0.0071537383 -0.007407259 0.041285027 0.028018449 -0.025224758 -0.028905058 0.012123276 0.02741808 0.042031255 0.014050867 -0.016132247 -0.013156403 -0.002526354 0.037004266 -0.028662635 0.0020036697 0.03294534 -0.03494818 -0.028823232 0.04724287 -0.010125361 0.013895895 0.032953452 0.012519766 0.008626439 0.04612304 0.021773983 -0.028651763 -0.0082454905 -0.039946984 0.034779135 0.03555167 -0.016614415 0.043040883 0.008585833 0.03777187 -0.004787661 0.0304186 -0.03459116 0.044385184 -0.03738848 0.0143009685 -0.0054677613 -0.036128856 -0.033803597 0.036406685 0.025354054 0.032171372 -0.021911943 0.03578225 -0.01486342 0.021011021 -0.006215524 -0.03891013 -0.04366976 0.019702543 0.024535183
there -0.0065868273 -0.016521562 0.02289157 -0.031232273 0.025666285 -0.0109346025 0.0010706671 0.023707833 -0.049441755 -0.0092733875 -0.02216406 -0.046310056 -0.03325434 0.019241039 0.0075334534 -0.010350086 0.0028656237 -0.010110296 0.018371988 0.038425457 -0.039656054 0.03798953 0.025104057 0.049688224 0.04963542 -0.006684672 0.0339867 -0.021210134 0.035728898 0.014830384 -0.04780946 0.006861888 -0.01200328 -0.008264471 0.046826076 0.018702973 -0.020138776 0.016881052 0.027436089 0.0017405152 0.043626774 0.04630531 -0.022413349 -0.03467437 -0.011351477 0.0048369393 -0.014714252 -0.01839266 0.04278556 0.03572235 -0.020559346 0.03384233 -0.006084919 -0.037117958 0.02601308 0.029490817 0.019517686 -0.043968488 -0.03547392 -0.036215317 0.03208873 -0.030452598 0.018406425 -0.029637648 0.045331445 0.017680157 -0.017401326 -0.029054726 -0.025591373 -0.002130486 -0.0037484393 -0.03816284 -0.031434037 0.03935731 -0.020379974 -0.034920216 -0.04851371 0.037592445 -0.013175942 0.0233812 -0.003708195 0.018401328 -0.023711419 -0.03211415 -0.047963705 0.041495953 0.04103266 0.018989634 0.047049847 -0.009374369 -0.0006479509 0.012793075 -0.000988841 0.0020105615 0.025110397 -0.038240086 -0.04621178 -0.047097933 0.033686128 -0.02716645
people 0.044599462 0.017145205 -0.0074623823 0.014019202 -0.0021171458 -0.04459199 -0.029514087 -0.023015594 -0.030642629 -0.008200206 0.022476677 -0.037862204 -0.041351296 -0.017378509 0.042039204 0.013446245 0.026869226 -0.024137795 -0.004448235 0.021873739 0.0042995587 0.009851981 -0.04777962 0.04115143 0.03990892 0.04117692 -0.041399967 0.047999013 0.042459194 0.041805316 -0.04598842 0.012889113 0.0139285065 -0.0070823543 -0.006604135 0.009792697 -0.01850275 -0.029760158 0.02664901 -0.03667722 -0.027212573 0.022575762 -0.004333578 -0.024965381 0.028125774 -0.04609088 0.014112722 0.042268243 -0.034978855 0.037444744 0.049575996 0.039761018 -0.008111548 -0.03303628 0.035085466 0.04949149 0.037969697 0.02055541 -0.009438537 0.046450604 -0.043265164 -0.018549897 -0.01092013 0.028124344 0.01241181 0.032262567 -0.00910778 -0.024678767 -0.038054228 0.04206841 -0.018804444 0.02630565 -0.020626593 0.02002943 -0.029191602 0.01813798 0.006002687 -0.038156293 -0.03360896 -0.010004796 -0.03682947 -0.045812942 0.04533795 0.0067794695 0.022535335 -0.0060112476 0.021540355 -0.034190334 0.017483737 0.024879519 -0.0201607 -0.04432255 0.031013314 0.021504905 -0.01875472 -0.04094361 -0.021598553 0.04579032 -0.042169966 -0.016046725
who 0.009522211 0.032875028 0.0027856342 -0.0051456317 -0.031390287 -0.01898991 0.029031608 -0.041946553 0.025105838 -0.040789545 -0.0058027133 -0.04683205 -0.023041403 -0.029559076 0.020487849 -0.023182739 0.03806046 -0.039788686 0.046066467 0.0050236583 -0.033724595 0.014038611 0.028305117 0.03873532 -0.014267422 0.03060988 0.024752606 0.017118681 -0.01903298 -0.029742146 -0.03391917 -0.046014406 0.030749109 -0.04628204 -0.00502206 0.03952029 -0.028148413 -0.046464898 -0.0066621304 -0.031316936 -0.03844732 -0.041410886 -0.0051030405 -0.029170621 -0.04093634 0.029097509 0.03309158 0.015561257 -0.044212427 -0.04896115 0.02744991 -0.019210769 -0.03834685 -0.02622726 0.03966293 0.016577903 0.009887587 -0.04303012 0.0049255863 0.041688297 0.008085012 -0.03449738 -0.0033481605 0.039155733 -0.013388168 -0.017925847 0.020614538 0.00794233 0.0150705315 0.016259138 0.015958797 -0.0024259798 0.008801091 -0.048297632 -0.031720065 -0.030097663 0.035930227 0.023884032 0.03336866 0.013286833 -0.0036263093 -0.043589294 0.031974103 0.0026558526 -0.038887955 -0.04035878 -0.033617616 0.0066623203 0.014189277 0.045816075 -0.017754436 -8.960813e-05 -0.0449402 0.03682145 -0.009438086 -0.01842437 -0.022478355 -0.04717046 0.02775288 -0.004723441
shed -0.004976608 0.03959204 0.0021979697 -0.026253045 0.0066767447 0.022519682 -0.012492456 -0.020225465 0.03900769 -0.045635212 -0.04808234 -0.009701896 -0.008292697 -0.002337478 0.024441313 0.0007157326 -0.0025126226 -0.027076125 -0.04983411 -0.030538285 0.047918785 0.021188643 -0.038493812 0.018483069 0.046586704 -0.021606756 0.04805428 -0.045990705 -0.047196962 0.0023777112 -0.016511321 0.0403576 -0.006304633 0.013776664 -0.028240371 -0.026634097 0.015445862 -0.010488462 -0.008450519 -0.042085588 -0.0016372092 -0.003960777 -0.018014323 -0.007573724 0.044368196 0.012997378 -0.045711365 0.032371175 -0.025744487 0.005924821 0.009271286 0.038212184 -0.013753891 -0.0027813092 0.0006409064 0.023554113 0.03249264 0.0020478964 0.04162531 0.013133716 -0.04231323 0.037694048 -0.013682045 0.020492379 0.036158416 -0.04519427 0.027737025 0.043871466 -0.04635341 -0.046394598 -0.0029764287 0.03177459 -0.01517253 -0.025590707 -0.039650153 0.0390702 -0.037888706 0.0010474436 -0.0052836537 -0.03741225 -0.03212271 -0.023837699 0.011132121 -0.007625211 0.019869018 0.04449666 0.015159499 0.043622207 0.037000928 -0.026003385 0.049296346 0.04789773 0.016354386 -0.017434418 -0.0328246 0.028803457 -0.00050096586 0.0011030547 0.0013505444 0.010439087
24 0.007999897 -0.020782733 0.044334736 0.047990132 0.047275078 -0.013707232 0.012641344 0.013915371 0.019004289 0.014451388 -0.012510467 0.02554692 -0.002012264 0.03470481 -0.034983408 -0.022255683 0.046497647 -0.019331252 0.030842867 0.002791904 0.042901363 -0.031337906 -0.012202941 -0.00538107 0.041029718 0.010856677 -0.03507377 0.040037263 -0.019997263 0.028418217 -0.033457816 0.005872704 -0.017315757 -0.035258222 -0.03299822 0.036045108 -0.024995495 -0.046769906 0.014717925 0.020891462 -0.0024045706 -0.048743796 -0.023737503 -0.041896842 0.032446172 0.034666274 0.04652783 -0.0011110306 0.038339708 -0.032111242 0.010141291 -0.041543007 0.014840234 0.015706528 0.037121985 -0.00666932 -0.04382167 -0.01641307 -0.031129707 0.022937987 -0.026531423 -0.04694537 0.04201803 -0.04668304 -0.01567484 0.021936957 -0.02651273 0.049138736 0.019077193 0.039747264 0.030514609 0.029934827 0.025020782 -0.04914639 -0.040450476 0.020657334 0.041594032 0.0042894706 -0.020788336 0.037399005 0.014950458 0.012243427 0.019018125 -0.017411329 0.03350004 0.014905859 -0.026109982 -0.017406095 0.005866684 -0.0041386485 -0.008667804 -0.0023587458 -0.011777483 -0.025586486 -0.009794522 -0.011773266 -0.02138002 0.027645875 0.0038973317 -0.016464017
48 -0.00562191 0.0062813275 -0.032611478 0.02042592 0.011366129 -0.0023657903 0.02499542 -0.008435987 -0.008058645 0.00067130476 -0.025708402 0.037049796 -0.0137793645 -0.007560421 -0.018964147 -0.026319826 -0.043303277 -0.039730214 -0.02253139 -0.038224973 0.048740294 0.010423303 -0.01589315 0.041731406 0.033188295 0.019027915 -0.029766142 -0.018395424 0.012721349 -0.0068572387 -0.011449825 -0.010082185 -0.0026977435 -0.015225969 -0.0032491311 0.0055090412 -0.0010041706 0.04070841 0.038748655 -0.010569464 0.03752042 -0.025143957 0.0070407167 -0.03730917 0.019862976 -0.03483958 0.01229893 0.030732598 -0.039838992 -0.041980386 0.030062232 -0.031082034 -0.02060479 -0.006087564 -0.0017930642 0.007947147 -0.047885288 -0.026885426 -0.0083341375 0.042581405 -0.0020403862 0.024513733 -0.02121538 0.03545082 -0.030184304 -0.023150552 0.02599496 -0.01931106 -0.0012838021 0.011448503 0.010986447 -0.0069785714 0.03849702 -0.02915578 -0.037661456 0.03573635 -0.0021251328 0.023914982 0.02406 0.0052659884 -0.021827877 -0.008485936 0.023531888 0.030685727 0.008888852 -0.03746741 -0.027625442 0.031429674 -0.047010448 -0.022018015 0.011074651 -0.022484506 0.0049277917 -0.016824521 0.025902558 0.009783603 -0.042004395 -0.033650436 0.0431518 0.04236796
hours 0.017499175 0.028794136 0.036909644 -0.029746009 0.033843625 -0.047151506 0.018854287 -0.025754416 -0.020372665 0.046782825 -0.02933954 -0.04534496 -0.031101966 -0.017795645 0.031293426 0.020566467 -0.013236247 -0.046756983 -0.0008023158 0.0003787987 -0.013074279 -0.03426521 0.022609066 -0.016384624 0.021200683 0.020301905 -0.017725158 0.025318932 0.03957465 0.00067260116 0.04706191 0.035789777 -0.038893927 -0.0136443265 -0.018256068 -0.034629248 -0.016982079 0.040249158 0.046932388 -0.042891324 0.04657552 -0.00069731474 0.015628401 0.0014798418 0.031124678 -0.048402667 0.040301252 0.017547775 0.034917388 -0.024014784 0.046375934 0.026663054 -0.01747308 -0.04329101 0.04883868 0.028662715 0.023917858 -0.018845117 0.034115937 0.04318768 0.016782645 0.007460486 -0.016524337 0.018805686 0.024677087 0.01588342 0.03436948 0.031695317 -0.00069924444 0.010081649 -0.025498439 -0.005692482 0.016168404 0.031111527 0.0019524097 -0.049151696 0.014982093 0.032623973 0.008992232 -0.012698807 0.023690287 -0.0164796 0.0012483001 -0.0310956 -0.007955432 -0.01091218 -0.04383893 -0.031228244 -0.010873221 0.038276207 0.040215638 -0.04754254 -0.025943423 0.008371912 -0.008028459 -0.019258393 0.0073634274 0.03186479 0.021546904 0.045850586
prior 0.028071966 0.04316515 -0.032101534 0.0077595823 -0.013357103 0.041519534 0.02795614 0.014023159 0.0017836466 0.023241732 0.022382203 0.009463429 -0.038198043 0.038818453 0.0077591166 0.031725954 -0.03374733 0.0408273 -0.012408864 0.025192086 -0.021860337 -0.004459489 0.0040640943 -0.04702449 -0.031836666 0.006790329 0.03756323 0.044332575 -0.006827593 0.04351585 0.00025689602 0.049301717 0.005336322 0.024012659 0.0031515956 -0.030780125 -0.047843527 -0.03628757 0.032961097 -0.04003521 0.0312897 -0.025859928 -0.022707427 0.017474543 -0.0028737895 0.011321556 -0.043839253 -0.038727663 -0.03021468 -0.0025924332 0.033759702 -0.011763774 -0.017889917 -0.0049858205 0.034998927 0.041875456 -0.04621861 0.014982428 0.004504822 0.021137033 0.015017699 -0.011885263 -0.021156538 -0.033901393 0.016620878 -0.049849212 -0.0141472 0.010620177 -0.04859004 -0.006044291 -0.038907994 0.009552777 0.012539212 -0.005882334 0.042209003 0.041604046 0.006524466 0.0067843907 0.048029844 -0.03462539 -0.009424437 -0.035917617 0.009701978 -0.009489141 -0.026061356 -0.028650714 0.009607755 -0.044071984 -0.03914187 0.011267114 0.0046193376 -0.0074527264 -0.020048201 0.026025418 -0.04709635 0.014429044 -0.029825224 0.030268315 0.03381476 -0.016472828
symptom -0.004812002 -0.043180227 0.00068669394 0.014529441 -0.044993605 -0.011000015 0.039126668 -0.036911797 -0.0048945323 0.030219998 0.0218102 0.0068135485 -0.041665412 0.00951878 -0.019788945 -0.042860772 -0.0023664013 -0.001731731 -0.029639209 0.03453834 0.005542636 -0.02621553 -0.0052231327 0.0033823252 -0.02271775 0.045812223 -0.042557802 -0.024534976 0.037085462 0.03261577 -0.025060548 0.040336255 0.009665489 -0.0103822835 0.0024997815 0.0017220862 -0.0379156 0.0054158457 0.0063658133 -0.019765867 0.04120579 -0.048631407 0.0025393963 -0.04829618 -0.046441175 -0.025315642 -0.0036294572 0.024632957 -0.01909033 0.010225225 0.0010399818 0.007697474 -0.023855114 0.047449958 -0.021541 -0.017380498 0.0007799864 -0.020075692 -0.02281183 -0.004056476 0.024291907 0.0049268007 0.01728442 0.005858101 -0.045542 0.004068423 -0.012905084 -0.023702169 0.020925794 -0.01770655 -0.021392405 0.046493147 -0.0071725734 0.049633373 -0.038772274 -0.011407636 0.01760291 -0.047249295 0.023994897 0.032840278 0.042497087 0.03753406 -0.04194645 0.04654399 -0.00827793 0.022103738 0.00085752085 -0.03281858 -0.027643895 0.04973502 0.04652678 -0.010746039 -0.04859046 -0.04629452 -0.0152197 -0.03246601 0.04673842 -0.021365976 -0.026136875 0.024756622
onset -0.04746064 -0.022258162 -0.025444686 0.03703859 0.039829645 -0.03162559 -0.018093359 0.039256882 0.016984012 -0.013252497 -0.038594007 0.0456422 -0.031004786 0.0032119863 -0.0047528036 0.0071423054 0.015264977 -0.003273081 0.022202823 0.027540099 0.00980996 0.01587161 0.03388918 -0.03775853 -0.015310477 -0.00575142 0.04929893 -0.047999263 -0.0020871982 -0.0060753003 0.019650828 -0.04985231 -0.033436835 0.014511589 -0.007480312 -0.031813122 0.0015827045 -0.02087276 0.018660236 -0.023372829 -0.038578607 0.028528366 0.0068525076 0.021528278 -0.026169956 0.04004589 0.0051823743 0.020240951 -0.022631967 -0.011446249 0.046796944 -0.0011690743 0.04906488 0.034358967 -0.038843762 0.0017102472 -0.0140064955 -0.0255983 0.03808296 -0.036383342 0.0063532963 0.020119693 0.036128256 -0.0228243 -0.014219262 0.02269793 -0.031573035 -0.025133813 -0.028210295 0.019468393 0.02043954 -0.042484343 -0.010859836 0.031707656 -0.035302114 -0.020183159 -0.019265343 0.040456567 -0.0067112558 0.009347416 0.017540459 0.042332504 0.013294999 0.026832107 0.008507896 -0.03688816 -0.041039396 -0.02650695 0.032200906 -0.046563327 0.041185904 -0.02477312 0.01743633 0.019192863 0.022602383 -0.044730414 0.014543626 0.02398881 0.0405079 0.025428984
at -0.043915033 -0.048233937 -0.004200589 -0.013109911 0.019917402 -0.028700782 -0.02669828 -0.036823023 0.042649355 0.037554514 -0.022945298 -0.014597822 -0.038443614 0.0014959462 0.0146829225 -0.015024722 -0.03508804 -0.00097008795 0.022740174 -0.033380464 0.0020324476 0.016892936 -0.046462428 0.03234664 0.034320477 0.03349625 0.044281248 0.0042772666 0.016108904 0.0009996183 0.00825591 0.006166637 0.02516475 -0.027468884 0.003919564 -0.03653153 0.03844824 -0.035482287 -0.03714464 0.016981807 0.014160994 0.029511835 -0.0133270025 -0.008772075 -0.037122227 -0.036928155 -0.034561656 -0.021562029 0.020075846 0.009569563 -0.016987182 -0.007718753 -0.027615178 0.024210561 0.044576097 0.02233285 -0.030500365 0.011689164 0.04810853 0.04859132 0.02692921 0.002586782 0.0038066283 -0.0010955222 -0.0064770468 0.039698433 0.023820926 -0.021984493 0.03283229 -0.0013163574 0.013250206 -0.047870602 -0.039148223 -0.015698038 -0.0317268 -0.004515089 0.009837471 -0.017436124 0.028043758 -0.027509535 0.0036257617 0.044604745 0.026892629 -0.040922116 0.008598685 0.0065195933 0.014437627 -0.045827843 0.02040017 -0.008753635 0.04061416 -0.028100742 -0.019751681 0.0045798197 -0.001342535 -0.03141036 -0.021548891 -0.032895017 -0.002109252 -0.03373164
present -0.003937613 0.018480603 -0.04212321 0.037998367 0.024989989 0.032895688 -0.023168301 -0.003098894 0.045430195 -0.036253057 -0.042304885 0.030723106 -0.009353209 -0.04914811 -0.03708886 -0.017603755 -0.00092034414 -0.049184885 0.018163089 0.024919 0.046373118 -0.04196025 0.01224383 -0.0040807724 0.014865149 0.0133342035 -0.041661464 -0.04904994 0.017308686 -0.0075923093 0.026306156 0.0120437145 -0.033660926 -0.012810599 -0.03694626 0.044705715 -0.027495611 0.04732721 0.0013614073 0.031106245 -0.03478738 -0.013759542 0.011093795 0.045805443 -0.008906364 0.010781288 -0.04428656 -0.045305062 -0.031138932 -0.042900622 -0.030405594 -0.01770264 -0.034837127 -0.00771147 0.045297947 -0.008976508 0.023992967 -0.021464264 0.028649759 0.018432762 0.042929996 0.028068174 0.044162404 -0.017725695 -0.0470425 -0.024400508 -0.0018616803 -0.018571712 0.02133682 0.038649086 -0.016337954 0.04002783 0.007070102 -0.042585827 0.010836661 0.0063998327 0.00092027336 0.047441278 0.011171091 -0.002087783 -0.0020099394 -0.005158674 -0.04519291 -0.019454896 -0.027169181 -0.043301295 -0.030811727 0.013441894 -0.024347877 0.046025757 -0.025119722 -0.0017967708 -0.03504374 -0.01286931 0.00010808557 0.049869727 -0.028839065 -0.016593207 0.021466386 0.03280374
does 0.04575627 -0.019183815 0.016188253 -0.024685789 -0.01800095 -0.043007124 -0.048382428 0.026293162 0.026143637 -0.004108142 -0.02137481 0.014580492 -0.037268937 -0.04320861 -0.019178271 -0.046925366 -0.03765415 0.017564539 0.003059268 -0.028009415 0.03747176 0.038189184 -0.026474584 -0.03940165 -0.0139632 -0.005267609 -0.016550232 0.037756715 0.005832635 0.001603771 0.02538285 0.033067826 0.02150121 -0.010016918 0.0065960884 0.018108133 -0.022103906 0.014095198 -0.008422233 -0.034157835 0.037158396 0.034247126 -0.0142635815 0.01730312 0.020871524 -0.009586405 0.016290735 0.025957357 -0.0074168444 0.028603677 -0.00421945 -0.044310775 -0.019962072 0.0074052326 0.008297361 -0.01843699 -0.003742434 -0.017810058 -0.0219082 -0.035192538 0.029526029 -0.004535161 0.019378874 0.022061754 -0.033757605 -0.032625534 -0.041732527 0.043315124 -0.0112944245 0.00090420246 0.025262285 0.0039157756 0.04529463 -0.03998797 -0.001897417 0.008196138 0.018895183 -0.022065127 -0.034171797 -0.019621694 -0.011982989 -0.03451115 -0.008736182 0.04631387 -0.03036486 -0.02665422 0.025252882 -0.0327752 0.015438963 0.034132693 0.026390027 0.04012486 0.004995428 -0.030188574 0.0049790367 -0.03685204 0.030553352 0.033251833 -0.0046790615 0.0068562254
